{"learner":{"attributes":{"scikit_learn":"{\"_estimator_type\": \"classifier\"}"},"feature_names":[],"feature_types":[],"gradient_booster":{"model":{"cats":{"enc":[],"feature_segments":[],"sorted_idx":[]},"gbtree_model_param":{"num_parallel_tree":"1","num_trees":"100"},"iteration_indptr":[0,1,2,3,4,5,6,7,8,9,10,11,12,13,14,15,16,17,18,19,20,21,22,23,24,25,26,27,28,29,30,31,32,33,34,35,36,37,38,39,40,41,42,43,44,45,46,47,48,49,50,51,52,53,54,55,56,57,58,59,60,61,62,63,64,65,66,67,68,69,70,71,72,73,74,75,76,77,78,79,80,81,82,83,84,85,86,87,88,89,90,91,92,93,94,95,96,97,98,99,100],"tree_info":[0,0,0,0,0,0,0,0,0,0,0,0,0,0,0,0,0,0,0,0,0,0,0,0,0,0,0,0,0,0,0,0,0,0,0,0,0,0,0,0,0,0,0,0,0,0,0,0,0,0,0,0,0,0,0,0,0,0,0,0,0,0,0,0,0,0,0,0,0,0,0,0,0,0,0,0,0,0,0,0,0,0,0,0,0,0,0,0,0,0,0,0,0,0,0,0,0,0,0,0],"trees":[{"base_weights":[7.6457036E-1,7.943588E-1,-5.373609E0,-2.1051905E0,8.1762123E-1,3.3746815E-1,-6.7467103E0,8.3856976E-1,-2.1027546E0,-2.1098118E0,-1.336199E0,8.5786486E-1,-4.6857285E0,-1.4824518E0,2.8865916E-1,1.0681136E0,4.3072358E-1,9.599184E-1,-2.1008048E0,3.2578105E-1,-2.08384E0,1.5246297E-1,-1.4269898E0,3.3834833E-1,-1.7391899E-1],"categories":[],"categories_nodes":[],"categories_segments":[],"categories_sizes":[],"default_left":[1,0,0,0,1,0,1,1,0,0,1,0,0,0,0,1,1,0,0,0,0,0,0,0,0],"id":0,"left_children":[1,3,5,-1,7,-1,9,11,-1,-1,13,15,17,-1,-1,19,21,23,-1,-1,-1,-1,-1,-1,-1],"loss_changes":[6.231338E3,6.164666E3,1.476373E3,0E0,5.5465586E3,0E0,2.0109961E2,3.5965527E3,0E0,0E0,7.157811E1,3.0158633E3,1.5432344E3,0E0,0E0,3.222504E3,4.45629E3,9.717358E0,0E0,0E0,0E0,0E0,0E0,0E0,0E0],"parents":[2147483647,0,0,1,1,2,2,4,4,6,6,7,7,10,10,11,11,12,12,15,15,16,16,17,17],"right_children":[2,4,6,-1,8,-1,10,12,-1,-1,14,16,18,-1,-1,20,22,24,-1,-1,-1,-1,-1,-1,-1],"split_conditions":[1E0,2.00001E0,8.5132256E-2,-2.1051905E0,1.042799E-1,3.3746815E-1,1.0044233E-1,6.2095217E-2,-2.1027546E0,-2.1098118E0,1.4319155E-1,5.1092273E-1,2.80777E-1,-1.4824518E0,2.8865916E-1,7.738563E-2,9.946623E-1,9.8021E-2,-2.1008048E0,3.2578105E-1,-2.08384E0,1.5246297E-1,-1.4269898E0,3.3834833E-1,-1.7391899E-1],"split_indices":[11738,11777,63,0,7819,0,6859,2655,0,0,5554,11886,1113,0,0,4009,7821,2813,0,0,0,0,0,0,0],"split_type":[0,0,0,0,0,0,0,0,0,0,0,0,0,0,0,0,0,0,0,0,0,0,0,0,0],"sum_hessian":[3.4055266E4,3.389166E4,1.6360457E2,9.973427E1,3.3791926E4,2.8570272E1,1.350343E2,3.3702613E4,8.931246E1,1.279701E2,7.064204E0,3.358615E4,1.1646407E2,2.3024924E0,4.761712E0,2.2506459E4,1.107969E4,3.4059086E1,8.240499E1,2.2457379E4,4.907944E1,1.0917512E4,1.6217863E2,3.0951128E1,3.1079588E0],"tree_param":{"num_deleted":"0","num_feature":"11898","num_nodes":"25","size_leaf_vector":"1"}},{"base_weights":[6.957803E-1,9.910031E-1,2.1160339E-1,9.974798E-1,-7.2841845E0,5.593167E-1,-8.5009396E-1,1.0142692E0,-5.21989E-1,-3.449697E-1,-2.454795E0,6.0513425E-1,-5.3494997E0,-5.8782345E-1,-4.9669757E0,1.0186787E0,-5.8344584E0,6.5954155E-1,-3.7808099E0,-6.038931E0,-5.574465E-1,7.528724E-1,-1.2809513E0,2.9153782E-1,-5.3155437E0,1.0273937E0,-2.3672466E0,-3.595551E-1,-6.8022094E0,6.923975E-1,-5.4988546E0,-5.0024486E-1,-4.3769546E0,-6.4853415E0,-7.142951E-1,8.3379835E-1,-5.631665E0,-6.161519E-1,-3.537091E0,3.063279E-1,-8.2273155E-1,-4.9902412E-1,-5.905473E0,-1.536083E0,3.0943602E-1,5.9502944E-2,-1.3677886E0,-3.9102313E-1,-2.263616E0,2.1795607E-1,-1.4033551E0,-1.873412E0,-4.641235E-1,-4.937742E-1,-1.551966E0,-6.096134E-1,-2.106257E0,2.3288576E-1,-6.057421E-1,2.7579528E-1,-1.2371804E0,-1.9336843E0,-4.876924E-1,1.7463832E-1,-4.9665013E-1,-1.3473114E0,3.292232E-1,-5.03587E-1,-2.0037894E0],"categories":[],"categories_nodes":[],"categories_segments":[],"categories_sizes":[],"default_left":[0,1,0,1,0,1,1,1,0,0,0,1,1,0,0,1,0,1,0,1,0,1,1,0,0,0,0,0,0,1,1,0,0,0,0,1,1,0,1,0,0,0,0,0,0,0,0,0,0,0,0,0,0,0,0,0,0,0,0,0,0,0,0,0,0,0,0,0,0],"id":1,"left_children":[1,3,5,7,9,11,13,15,-1,-1,-1,17,19,21,23,25,27,29,31,33,-1,35,37,39,41,43,45,-1,47,49,51,-1,53,55,57,59,61,63,65,-1,-1,-1,67,-1,-1,-1,-1,-1,-1,-1,-1,-1,-1,-1,-1,-1,-1,-1,-1,-1,-1,-1,-1,-1,-1,-1,-1,-1,-1],"loss_changes":[4.0894053E3,9.598379E2,4.0016836E3,8.1802344E2,6.786139E1,2.21377E3,2.8846682E3,5.3904297E2,0E0,0E0,0E0,1.9361455E3,1.402489E2,2.3383755E3,2.9488428E2,5.230137E2,4.3471863E1,1.6234944E3,1.1797681E2,1.1922302E2,0E0,4.4792413E2,2.4853147E3,2.691948E1,3.1364844E2,4.4448242E2,2.573227E2,0E0,2.8193695E1,1.4626343E3,1.1587598E2,0E0,1.5880823E2,1.00089355E2,1.15925865E1,3.6331976E2,2.4953644E1,1.597867E3,1.6727832E3,0E0,0E0,0E0,4.1028857E2,0E0,0E0,0E0,0E0,0E0,0E0,0E0,0E0,0E0,0E0,0E0,0E0,0E0,0E0,0E0,0E0,0E0,0E0,0E0,0E0,0E0,0E0,0E0,0E0,0E0,0E0],"parents":[2147483647,0,0,1,1,2,2,3,3,4,4,5,5,6,6,7,7,11,11,12,12,13,13,14,14,15,15,16,16,17,17,18,18,19,19,21,21,22,22,23,23,24,24,25,25,26,26,28,28,29,29,30,30,32,32,33,33,34,34,35,35,36,36,37,37,38,38,42,42],"right_children":[2,4,6,8,10,12,14,16,-1,-1,-1,18,20,22,24,26,28,30,32,34,-1,36,38,40,42,44,46,-1,48,50,52,-1,54,56,58,60,62,64,66,-1,-1,-1,68,-1,-1,-1,-1,-1,-1,-1,-1,-1,-1,-1,-1,-1,-1,-1,-1,-1,-1,-1,-1,-1,-1,-1,-1,-1,-1],"split_conditions":[5.1092273E-1,8.5402474E-2,5.295637E-1,7.738563E-2,2.00001E0,9.9317497E-1,3.968511E-2,3.8127106E-2,-5.21989E-1,-3.449697E-1,-2.454795E0,3.259347E-2,3.8552184E-2,9.792265E-2,1.0839328E-1,9.944829E-1,3.725383E-1,9.2540056E-2,2.00001E0,5.1720027E-2,-5.574465E-1,3.0735957E-2,9.900864E-1,6.087886E-2,2.00001E0,1.385387E0,9.9748397E-1,-3.595551E-1,2.3034975E-1,9.9818796E-1,6.2377978E-2,-5.0024486E-1,2.00001E0,2.00001E0,1.1328378E-1,4.100921E-2,7.3047765E-2,4.9873698E-1,1.109627E-1,3.063279E-1,-8.2273155E-1,-4.9902412E-1,2.00001E0,-1.536083E0,3.0943602E-1,5.9502944E-2,-1.3677886E0,-3.9102313E-1,-2.263616E0,2.1795607E-1,-1.4033551E0,-1.873412E0,-4.641235E-1,-4.937742E-1,-1.551966E0,-6.096134E-1,-2.106257E0,2.3288576E-1,-6.057421E-1,2.7579528E-1,-1.2371804E0,-1.9336843E0,-4.876924E-1,1.7463832E-1,-4.9665013E-1,-1.3473114E0,3.292232E-1,-5.03587E-1,-2.0037894E0],"split_indices":[11886,7923,4933,4009,11738,11701,535,4680,0,0,0,3223,2655,5554,287,11695,2655,5362,11777,2812,0,6463,11712,3493,11777,6972,6254,0,7848,11713,2655,0,11738,7821,130,4469,7701,6254,9,0,0,0,11738,0,0,0,0,0,0,0,0,0,0,0,0,0,0,0,0,0,0,0,0,0,0,0,0,0,0],"split_type":[0,0,0,0,0,0,0,0,0,0,0,0,0,0,0,0,0,0,0,0,0,0,0,0,0,0,0,0,0,0,0,0,0,0,0,0,0,0,0,0,0,0,0,0,0,0,0,0,0,0,0,0,0,0,0,0,0,0,0,0,0,0,0,0,0,0,0,0,0],"sum_hessian":[2.8609701E4,1.7772203E4,1.0837498E4,1.7759184E4,1.3020035E1,8.164154E3,2.6733442E3,1.7651553E4,1.0763192E2,1.9546278E0,1.1065407E1,8.102226E3,6.192791E1,2.51431E3,1.5903413E2,1.7641045E4,1.0506773E1,8.0037896E3,9.8436775E1,5.1106327E1,1.0821583E1,8.5684845E2,1.6574617E3,9.896636E0,1.491375E2,1.7596451E4,4.4594433E1,2.201086E0,8.305687E0,7.9621973E3,4.1591877E1,2.2493753E1,7.594302E1,4.6951946E1,4.1543813E0,8.4698206E2,9.866347E0,1.2812103E3,3.762513E2,8.513026E0,1.38361E0,2.1271267E1,1.2786623E2,1.0780959E1,1.758567E4,2.0965626E1,2.3628807E1,1.3167605E0,6.9889264E0,7.912784E3,4.9413372E1,3.4500145E1,7.09173E0,1.7835978E1,5.810704E1,5.554629E0,4.1397316E1,2.1282566E0,2.0261247E0,8.334204E2,1.356165E1,7.6940746E0,2.1722724E0,5.953095E2,6.859009E2,3.1205096E2,6.4200356E1,2.0276957E1,1.0758927E2],"tree_param":{"num_deleted":"0","num_feature":"11898","num_nodes":"69","size_leaf_vector":"1"}},{"base_weights":[6.359879E-1,9.351831E-1,2.1651492E-1,9.517802E-1,-1.3931288E0,3.2747015E-1,-2.078279E0,9.8080885E-1,-1.492795E-1,-1.4773377E0,2.1889265E-1,6.537067E-1,-2.193353E-1,9.284801E-1,-2.5783103E0,-2.4979146E0,9.836622E-1,4.291575E-1,-5.383055E0,-8.388497E-1,-4.2991167E-1,-3.5539596E0,6.8731E-1,8.142345E-1,-1.2863957E0,3.2879868E-1,-8.739281E-1,-3.121555E0,3.275175E-1,9.8708975E-1,-6.340406E0,6.120283E-1,-4.487646E0,4.5996845E-1,-6.0400276E0,-4.1547343E-1,-3.831545E0,7.240842E-1,-2.7269113E0,9.802641E-1,-2.6316748E0,7.423023E-1,-1.8142251E0,-3.395527E0,-4.8475048E-1,2.972549E-1,-1.6172429E0,-6.045085E-1,-2.5851712E0,2.1598539E-1,-1.272953E0,-1.5796275E0,-3.5699734E-1,1.9284292E-1,4.9123388E-2,-4.6610528E-1,-2.1089964E0,-1.223967E0,-4.5428059E-1,2.2730196E-1,-8.240953E-1,2.971401E-1,-1.114363E0,3.1343782E-1,-1.090075E0,2.7206296E-1,-1.060491E0,2.8228685E-1,-1.1527636E0,3.0264503E-1,-6.811412E-1,-4.6279615E-1,-1.0776075E0],"categories":[],"categories_nodes":[],"categories_segments":[],"categories_sizes":[],"default_left":[0,1,1,1,1,1,0,0,1,0,0,0,0,0,1,0,1,1,0,0,0,0,1,0,0,0,0,1,0,1,0,1,1,0,0,0,1,1,0,1,0,0,0,0,0,0,0,0,0,0,0,0,0,0,0,0,0,0,0,0,0,0,0,0,0,0,0,0,0,0,0,0,0],"id":2,"left_children":[1,3,5,7,9,11,13,15,17,19,-1,21,23,25,27,-1,29,31,33,-1,-1,35,37,39,41,-1,-1,43,-1,45,47,49,51,53,55,-1,57,59,61,63,65,67,69,71,-1,-1,-1,-1,-1,-1,-1,-1,-1,-1,-1,-1,-1,-1,-1,-1,-1,-1,-1,-1,-1,-1,-1,-1,-1,-1,-1,-1,-1],"loss_changes":[2.987456E3,5.382461E2,2.5244355E3,4.4111914E2,1.8729935E1,1.6869067E3,6.899022E2,3.6517188E2,1.077836E3,1.5613556E0,0E0,8.3983154E2,3.8987349E3,4.562571E1,7.8563086E2,0E0,3.4363184E2,2.9122012E2,1.3878308E2,0E0,0E0,2.3043701E1,7.397888E2,1.030017E3,1.8637607E3,0E0,0E0,1.3560205E2,0E0,3.2748242E2,4.587201E1,1.6560017E2,2.355017E1,1.3902646E-1,1.3084253E2,0E0,1.7518799E1,6.800005E2,2.3435162E2,5.141E2,2.6792877E2,3.3132422E2,1.7803218E3,9.94812E1,0E0,0E0,0E0,0E0,0E0,0E0,0E0,0E0,0E0,0E0,0E0,0E0,0E0,0E0,0E0,0E0,0E0,0E0,0E0,0E0,0E0,0E0,0E0,0E0,0E0,0E0,0E0,0E0,0E0],"parents":[2147483647,0,0,1,1,2,2,3,3,4,4,5,5,6,6,7,7,8,8,9,9,11,11,12,12,13,13,14,14,16,16,17,17,18,18,21,21,22,22,23,23,24,24,27,27,29,29,30,30,31,31,32,32,33,33,34,34,36,36,37,37,38,38,39,39,40,40,41,41,42,42,43,43],"right_children":[2,4,6,8,10,12,14,16,18,20,-1,22,24,26,28,-1,30,32,34,-1,-1,36,38,40,42,-1,-1,44,-1,46,48,50,52,54,56,-1,58,60,62,64,66,68,70,72,-1,-1,-1,-1,-1,-1,-1,-1,-1,-1,-1,-1,-1,-1,-1,-1,-1,-1,-1,-1,-1,-1,-1,-1,-1,-1,-1,-1,-1],"split_conditions":[5.1092273E-1,6.4614266E-2,3.4908507E-2,9.90595E-1,1.0346238E-1,9.9169946E-1,1.527199E-1,7.605114E-1,2.2420404E-2,8.1631735E-2,2.1889265E-1,4.6280536E-1,1.3700324E-1,1.0841004E-1,4.2370415E-1,-2.4979146E0,1E0,1.5926389E-2,1.2563881E-1,-8.388497E-1,-4.2991167E-1,2.00001E0,8.863049E-2,-9.7932094E-1,1.0804006E-1,3.2879868E-1,-8.739281E-1,6.0294967E-2,3.275175E-1,7.170806E-2,1.385387E0,2.1524018E-2,6.3862756E-2,5.673147E-2,2.00001E0,-4.1547343E-1,6.2377978E-2,5.3979337E-2,1.4728712E-1,2.6149115E-2,6.407334E-2,7.0486665E-1,2.00001E0,2.00001E0,-4.8475048E-1,2.972549E-1,-1.6172429E0,-6.045085E-1,-2.5851712E0,2.1598539E-1,-1.272953E0,-1.5796275E0,-3.5699734E-1,1.9284292E-1,4.9123388E-2,-4.6610528E-1,-2.1089964E0,-1.223967E0,-4.5428059E-1,2.2730196E-1,-8.240953E-1,2.971401E-1,-1.114363E0,3.1343782E-1,-1.090075E0,2.7206296E-1,-1.060491E0,2.8228685E-1,-1.1527636E0,3.0264503E-1,-6.811412E-1,-4.6279615E-1,-1.0776075E0],"split_indices":[11886,4009,2481,11704,5516,11638,7650,6538,7981,4009,0,7518,2302,642,2903,0,11186,2680,1481,0,0,11777,5929,11887,1065,0,0,2655,0,1449,6972,2974,2655,48,11738,0,2655,4744,909,1725,3885,11887,10215,11777,0,0,0,0,0,0,0,0,0,0,0,0,0,0,0,0,0,0,0,0,0,0,0,0,0,0,0,0,0],"split_type":[0,0,0,0,0,0,0,0,0,0,0,0,0,0,0,0,0,0,0,0,0,0,0,0,0,0,0,0,0,0,0,0,0,0,0,0,0,0,0,0,0,0,0,0,0,0,0,0,0,0,0,0,0,0,0,0,0,0,0,0,0,0,0,0,0,0,0,0,0,0,0,0,0],"sum_hessian":[2.3804232E4,1.389336E4,9.910872E3,1.3795612E4,9.774891E1,9.454592E3,4.5628018E2,1.344135E4,3.542627E2,9.4311676E1,3.437233E0,5.9214966E3,3.5330952E3,6.493853E1,3.9134167E2,3.2254546E0,1.3438124E4,3.198328E2,3.442992E1,1.0461557E0,9.326552E1,4.6085506E1,5.8754106E3,1.7948323E3,1.738263E3,6.2909985E1,2.028549E0,3.4101367E2,5.0327988E1,1.3432702E4,5.4211006E0,3.0920792E2,1.0624858E1,3.5102339E0,3.0919687E1,5.9081836E0,4.0177322E1,5.8135815E3,6.1829556E1,1.713012E3,8.1820244E1,3.5880383E2,1.3794591E3,2.8745505E2,5.355863E1,1.3425633E4,7.0699744E0,2.5195794E0,2.9015212E0,3.033174E2,5.8905168E0,8.114313E0,2.5105445E0,1.4470458E0,2.063188E0,6.0538826E0,2.4865805E1,3.5601265E1,4.5760565E0,5.7586377E3,5.4943626E1,1.2978079E1,4.8851475E1,1.6901475E3,2.2864567E1,1.6638178E1,6.518206E1,3.4466486E2,1.4138992E1,1.9175496E2,1.1877042E3,2.8410414E1,2.5904462E2],"tree_param":{"num_deleted":"0","num_feature":"11898","num_nodes":"73","size_leaf_vector":"1"}},{"base_weights":[5.820684E-1,8.837234E-1,2.0395513E-1,9.1713417E-1,-1.6581528E-1,8.39328E-1,-8.2159415E-2,-1.3610445E0,9.32996E-1,5.8131903E-1,-1.994829E0,9.313687E-1,-1.6592908E0,1.0069814E0,-3.2733536E-1,-3.8212383E-1,-1.0741469E0,9.3649745E-1,-7.513254E0,7.534804E-1,-3.5639238E0,8.940427E-1,-3.4248722E0,9.5397294E-1,-3.536386E0,3.0690813E-1,-2.2424173E0,1.0471382E0,-3.0953536E0,5.352297E-1,-7.5239116E-1,-7.1007442E0,9.397112E-1,-3.171596E-1,-2.7356324E0,8.161961E-1,-1.8401767E0,-6.566661E-1,-4.9822493E0,-2.9011866E-1,3.09267E-1,4.243768E-1,-3.873094E0,9.6970576E-1,-4.244963E0,-4.2313666E0,-4.2086056E-1,-3.293324E0,-4.9378067E-1,1.0647559E0,-1.184638E0,-1.2578727E0,-4.839902E-1,6.332248E-1,-2.4217298E0,2.4343054E-1,-1.0909691E0,-2.5503898E0,-5.091269E-1,2.8288183E-1,-2.184821E0,2.6578516E-1,-1.2253172E0,-3.3543575E-1,-1.8157508E0,2.63539E-1,-1.6309977E-1,-2.1190028E0,-9.397425E-1,2.9550388E-1,-6.867753E-1,-1.4332079E0,-3.39068E-1,-1.407518E0,-4.333884E-1,-5.8623874E-1,-1.1555892E0,3.2155782E-1,-6.6196024E-1,2.1075301E-1,-9.635984E-1,-3.5907876E-1,-7.5710994E-1,1.0570099E-1,-8.957773E-1,2.8536445E-1,-3.9407566E-1],"categories":[],"categories_nodes":[],"categories_segments":[],"categories_sizes":[],"default_left":[0,1,0,0,0,1,0,0,1,1,0,1,0,1,0,0,0,0,0,1,0,1,0,1,1,0,1,1,0,1,0,0,1,0,0,1,0,0,0,0,0,0,0,1,1,1,0,0,0,1,0,0,0,1,0,1,0,0,0,0,0,0,0,0,0,0,0,0,0,0,0,0,0,0,0,0,0,0,0,0,0,0,0,0,0,0,0],"id":3,"left_children":[1,3,5,7,9,11,13,15,17,19,21,23,25,27,29,-1,-1,31,33,35,37,39,41,43,45,-1,47,49,51,53,55,57,59,-1,-1,61,-1,-1,63,-1,-1,65,67,69,71,73,-1,75,-1,77,-1,-1,-1,79,81,83,85,-1,-1,-1,-1,-1,-1,-1,-1,-1,-1,-1,-1,-1,-1,-1,-1,-1,-1,-1,-1,-1,-1,-1,-1,-1,-1,-1,-1,-1,-1],"loss_changes":[2.2267998E3,3.8097168E2,1.5753842E3,3.816084E2,4.601716E2,6.2033606E2,1.5960847E3,9.618591E0,3.161787E2,1.7343034E2,4.0644583E2,2.6551782E2,1.5237897E2,1.8417126E2,1.7890901E3,0E0,0E0,2.765791E2,3.6407196E1,1.04588135E2,8.041328E0,9.433128E0,1.1468506E2,2.1542749E2,1.3753815E1,0E0,4.418335E1,1.000022E2,1.0965164E1,4.6836682E2,1.1023019E3,1.8066315E1,2.841455E2,0E0,0E0,8.201659E1,0E0,0E0,9.769508E0,0E0,0E0,3.8776333E0,1.167677E2,1.3078369E2,7.8340607E0,5.4360504E0,0E0,1.3160736E1,0E0,2.7586182E1,0E0,0E0,0E0,4.1791345E2,3.4595032E0,2.9301263E2,1.1102612E3,0E0,0E0,0E0,0E0,0E0,0E0,0E0,0E0,0E0,0E0,0E0,0E0,0E0,0E0,0E0,0E0,0E0,0E0,0E0,0E0,0E0,0E0,0E0,0E0,0E0,0E0,0E0,0E0,0E0,0E0],"parents":[2147483647,0,0,1,1,2,2,3,3,4,4,5,5,6,6,7,7,8,8,9,9,10,10,11,11,12,12,13,13,14,14,17,17,18,18,19,19,20,20,21,21,22,22,23,23,24,24,26,26,27,27,28,28,29,29,30,30,31,31,32,32,35,35,38,38,41,41,42,42,43,43,44,44,45,45,47,47,49,49,53,53,54,54,55,55,56,56],"right_children":[2,4,6,8,10,12,14,16,18,20,22,24,26,28,30,-1,-1,32,34,36,38,40,42,44,46,-1,48,50,52,54,56,58,60,-1,-1,62,-1,-1,64,-1,-1,66,68,70,72,74,-1,76,-1,78,-1,-1,-1,80,82,84,86,-1,-1,-1,-1,-1,-1,-1,-1,-1,-1,-1,-1,-1,-1,-1,-1,-1,-1,-1,-1,-1,-1,-1,-1,-1,-1,-1,-1,-1,-1],"split_conditions":[5.1092273E-1,9.896363E-1,3.690428E-1,6.317282E-1,1.454848E-1,3.536112E-2,1.659879E0,4.848342E-1,1.15542114E-1,2.1270908E-2,2.523536E-1,1E0,9.5308386E-2,9.900864E-1,1.4716199E-1,-3.8212383E-1,-1.0741469E0,2.00001E0,1.2028571E-1,9.879753E-1,2.00001E0,3.762458E-2,1.2571144E-1,3.5053488E-2,3.7375905E-2,3.0690813E-1,3.5030548E-2,1.24799386E-1,1.371632E-1,6.79429E-2,4.9087307E-1,2.00001E0,9.744922E-2,-3.171596E-1,-2.7356324E0,4.6748895E-2,-1.8401767E0,-6.566661E-1,1.0921602E-1,-2.9011866E-1,3.09267E-1,1.0026569E-1,2.00001E0,4.261658E-2,3.9478064E-2,6.483395E-2,-4.2086056E-1,1.8248497E-1,-4.9378067E-1,5.3755835E-2,-1.184638E0,-1.2578727E0,-4.839902E-1,3.4156065E-2,2.00001E0,4.1635662E-2,4.1419178E-1,-2.5503898E0,-5.091269E-1,2.8288183E-1,-2.184821E0,2.6578516E-1,-1.2253172E0,-3.3543575E-1,-1.8157508E0,2.63539E-1,-1.6309977E-1,-2.1190028E0,-9.397425E-1,2.9550388E-1,-6.867753E-1,-1.4332079E0,-3.39068E-1,-1.407518E0,-4.333884E-1,-5.8623874E-1,-1.1555892E0,3.2155782E-1,-6.6196024E-1,2.1075301E-1,-9.635984E-1,-3.5907876E-1,-7.5710994E-1,1.0570099E-1,-8.957773E-1,2.8536445E-1,-3.9407566E-1],"split_indices":[11886,11700,3251,837,4153,2075,6268,4009,3389,2974,7400,11865,51,11712,5782,0,0,11863,5042,11883,11704,414,2084,4281,535,0,4549,722,4933,5362,2311,11638,3859,0,0,91,0,0,3342,0,0,7,11712,3497,4214,676,0,3939,0,4070,0,0,0,342,11738,1844,9,0,0,0,0,0,0,0,0,0,0,0,0,0,0,0,0,0,0,0,0,0,0,0,0,0,0,0,0,0,0],"split_type":[0,0,0,0,0,0,0,0,0,0,0,0,0,0,0,0,0,0,0,0,0,0,0,0,0,0,0,0,0,0,0,0,0,0,0,0,0,0,0,0,0,0,0,0,0,0,0,0,0,0,0,0,0,0,0,0,0,0,0,0,0,0,0,0,0,0,0,0,0,0,0,0,0,0,0,0,0,0,0,0,0,0,0,0,0,0,0],"sum_hessian":[1.952369E4,1.0859084E4,8.664605E3,1.0524185E4,3.348987E2,2.6896912E3,5.974914E3,7.2181564E1,1.0452003E4,2.3825572E2,9.6642975E1,2.594737E3,9.495417E1,1.0972982E3,4.877616E3,7.0964195E1,1.2173653E0,1.0448561E4,3.442461E0,2.2954062E2,8.715114E0,3.2123726E1,6.451925E1,2.5824578E3,1.2279263E1,1.6821726E1,7.813245E1,1.0873987E3,9.899546E0,1.6100616E3,3.2675544E3,3.2935138E0,1.0445268E4,1.0158881E0,2.4265728E0,2.2834285E2,1.1977633E0,5.7164373E0,2.9986768E0,1.7847435E0,3.0338982E1,6.7348404E0,5.7784412E1,2.5754773E3,6.9803224E0,8.520484E0,3.7587783E0,2.6652943E1,5.1479504E1,1.0843617E3,3.0370417E0,4.6366715E0,5.262874E0,1.5591757E3,5.0885994E1,8.291496E2,2.4384048E3,2.1603343E0,1.1331794E0,1.0442053E4,3.2142332E0,2.2594598E2,2.3968756E0,1.0938989E0,1.9047778E0,4.6473927E0,2.087448E0,9.278747E0,4.8505665E1,2.5641316E3,1.1345882E1,5.5054874E0,1.4748349E0,6.7258115E0,1.7946731E0,9.169484E0,1.7483458E1,1.082683E3,1.6786448E0,1.5323817E3,2.6793972E1,4.8898726E0,4.599612E1,8.0296155E2,2.6188011E1,2.3935909E2,2.1990457E3],"tree_param":{"num_deleted":"0","num_feature":"11898","num_nodes":"87","size_leaf_vector":"1"}},{"base_weights":[5.242308E-1,8.3070856E-1,1.8567179E-1,-5.384415E0,8.364072E-1,2.960746E-1,-1.2424555E0,-5.522699E-1,-6.8038073E0,8.485669E-1,-2.0899534E0,3.9689535E-1,-1.4229949E0,7.503927E-1,-1.9538839E0,-2.7685812E0,-4.9493146E-1,8.666757E-1,-8.950355E-1,2.7899912E-1,-2.9774547E0,8.188421E-1,1.0299511E-1,8.449675E-1,-2.0221915E0,-2.1603699E0,9.8009074E-1,-2.235408E0,9.8874205E-1,8.796176E-1,-1.5447791E0,-1.6383002E0,8.9520556E-1,-6.379802E-1,-5.847694E0,8.7945026E-1,-9.7841763E-1,7.8767E-1,-3.4437242E-1,1.0368279E0,-2.0655074E0,-2.5624657E0,-1.5072674E0,-2.4061186E0,-3.0535245E-1,1.0462865E0,-4.4150016E-1,1.0014956E0,-2.3275876E0,3.5028782E-1,-3.5972214E-1,-1.762439E0,2.6519698E-1,2.5161377E-1,-7.232951E-1,-3.5571045E-1,-1.718744E0,3.0221552E-1,-2.917049E-1,-3.9977384E-1,-1.9984912E0,2.6976877E-1,-1.0385898E0,3.168196E-1,-9.3349046E-1,2.6005617E-1,-6.4032036E-1,1.7862417E-1,-2.6815188E-1,-8.309352E-3,3.185816E-1,-6.8697E-1,-2.1356063E-1,2.734221E-1,-7.994329E-1,-6.4481914E-1,-4.233891E-1,-7.6728874E-1,-2.2254184E-1,3.197311E-1,-5.4345813E-2,4.8292097E-1,-4.0281096E-1,-7.370195E-1,-4.2856413E-1],"categories":[],"categories_nodes":[],"categories_segments":[],"categories_sizes":[],"default_left":[0,0,1,0,1,1,0,0,1,1,0,0,0,1,1,0,0,1,1,0,0,1,0,0,0,1,0,0,0,0,0,0,0,0,0,1,0,1,0,1,1,0,0,1,0,1,0,0,1,0,0,0,0,0,0,0,0,0,0,0,0,0,0,0,0,0,0,0,0,0,0,0,0,0,0,0,0,0,0,0,0,0,0,0,0],"id":4,"left_children":[1,3,5,7,9,11,13,-1,15,17,19,21,23,25,27,-1,-1,29,31,-1,33,35,37,39,41,43,45,47,49,51,53,55,57,-1,59,61,63,65,67,69,71,73,75,77,-1,79,-1,81,83,-1,-1,-1,-1,-1,-1,-1,-1,-1,-1,-1,-1,-1,-1,-1,-1,-1,-1,-1,-1,-1,-1,-1,-1,-1,-1,-1,-1,-1,-1,-1,-1,-1,-1,-1,-1],"loss_changes":[1.685146E3,3.064287E2,1.2173323E3,2.7428268E1,3.048672E2,1.2424578E3,7.869937E2,0E0,5.1021454E1,2.686294E2,9.8011566E1,8.393696E2,5.4145447E2,1.0005452E2,3.4068347E2,0E0,0E0,2.634048E2,1.18151405E2,0E0,5.5217606E1,3.0357837E2,1.2227745E3,4.8885555E1,8.362244E1,6.467743E-1,2.3686005E1,1.13687744E2,1.5633705E1,2.5185791E2,9.531105E1,1.0859073E2,6.5047455E0,0E0,1.2301468E1,2.3400659E2,3.988012E2,3.6686816E2,1.2473954E3,2.146469E0,4.3884277E-2,5.6461487E1,7.0386353E0,2.0601273E-1,0E0,3.384613E0,0E0,1.7892662E1,3.8657104E1,0E0,0E0,0E0,0E0,0E0,0E0,0E0,0E0,0E0,0E0,0E0,0E0,0E0,0E0,0E0,0E0,0E0,0E0,0E0,0E0,0E0,0E0,0E0,0E0,0E0,0E0,0E0,0E0,0E0,0E0,0E0,0E0,0E0,0E0,0E0,0E0],"parents":[2147483647,0,0,1,1,2,2,3,3,4,4,5,5,6,6,8,8,9,9,10,10,11,11,12,12,13,13,14,14,17,17,18,18,20,20,21,21,22,22,23,23,24,24,25,25,26,26,27,27,28,28,29,29,30,30,31,31,32,32,34,34,35,35,36,36,37,37,38,38,39,39,40,40,41,41,42,42,43,43,45,45,47,47,48,48],"right_children":[2,4,6,8,10,12,14,-1,16,18,20,22,24,26,28,-1,-1,30,32,-1,34,36,38,40,42,44,46,48,50,52,54,56,58,-1,60,62,64,66,68,70,72,74,76,78,-1,80,-1,82,84,-1,-1,-1,-1,-1,-1,-1,-1,-1,-1,-1,-1,-1,-1,-1,-1,-1,-1,-1,-1,-1,-1,-1,-1,-1,-1,-1,-1,-1,-1,-1,-1,-1,-1,-1,-1],"split_conditions":[5.1092273E-1,8.921898E-2,2.3811404E-2,2.00001E0,5.622648E-2,3.4047894E-2,1.3700165E-1,-5.522699E-1,4.6796203E-2,2.787373E-2,1.08403474E-1,6.684591E-2,1.0263104E-1,2.626486E-2,6.9692835E-2,-2.7685812E0,-4.9493146E-1,9.944829E-1,2.9108375E-2,2.7899912E-1,3.742544E-1,9.944829E-1,2.00001E0,8.5560635E-2,2.2137478E-1,3.5603374E-2,7.875637E-2,1.8262212E-1,2.00001E0,7.343959E-1,6.1493707E-1,5.7092994E-1,7.6159805E-2,-6.379802E-1,7.176962E-2,1.28783E-1,1.5444647E-1,1.5725377E-1,4.2525584E-1,1.3899519E-2,4.9233295E-2,8.922664E-2,4.0275473E-2,5.6309372E-2,-3.0535245E-1,2.9313382E-2,-4.4150016E-1,2.3470883E-1,5.9438605E-2,3.5028782E-1,-3.5972214E-1,-1.762439E0,2.6519698E-1,2.5161377E-1,-7.232951E-1,-3.5571045E-1,-1.718744E0,3.0221552E-1,-2.917049E-1,-3.9977384E-1,-1.9984912E0,2.6976877E-1,-1.0385898E0,3.168196E-1,-9.3349046E-1,2.6005617E-1,-6.4032036E-1,1.7862417E-1,-2.6815188E-1,-8.309352E-3,3.185816E-1,-6.8697E-1,-2.1356063E-1,2.734221E-1,-7.994329E-1,-6.4481914E-1,-4.233891E-1,-7.6728874E-1,-2.2254184E-1,3.197311E-1,-5.4345813E-2,4.8292097E-1,-4.0281096E-1,-7.370195E-1,-4.2856413E-1],"split_indices":[11886,3167,2072,11700,5268,535,7581,0,709,1821,118,3832,287,6725,7474,0,0,11695,3038,0,7923,11695,11707,3493,4933,2273,926,1474,11697,6971,448,4885,2142,0,4153,7373,3915,5013,5554,2680,4864,1371,535,7757,0,3522,0,376,2655,0,0,0,0,0,0,0,0,0,0,0,0,0,0,0,0,0,0,0,0,0,0,0,0,0,0,0,0,0,0,0,0,0,0,0,0],"split_type":[0,0,0,0,0,0,0,0,0,0,0,0,0,0,0,0,0,0,0,0,0,0,0,0,0,0,0,0,0,0,0,0,0,0,0,0,0,0,0,0,0,0,0,0,0,0,0,0,0,0,0,0,0,0,0,0,0,0,0,0,0,0,0,0,0,0,0,0,0,0,0,0,0,0,0,0,0,0,0,0,0,0,0,0,0],"sum_hessian":[1.6241166E4,8.523701E3,7.7174644E3,6.943588E0,8.516758E3,7.164406E3,5.5305884E2,2.6427982E0,4.3007894E0,8.482222E3,3.453548E1,6.768229E3,3.96177E2,1.4548172E2,4.075771E2,2.3871562E0,1.9136332E0,8.39553E3,8.669185E1,7.8331842E0,2.6702295E1,2.7780503E3,3.9901785E3,8.27098E1,3.134672E2,1.002598E1,1.3545573E2,3.7220792E2,3.536918E1,8.351345E3,4.418519E1,6.1318687E1,2.5373161E1,2.193947E1,4.762824E0,2.6879177E3,9.0132645E1,1.5765629E3,2.4136157E3,7.8198654E1,4.511148E0,1.5102782E2,1.6243939E2,7.3410244E0,2.6849556E0,1.3245285E2,3.0028844E0,1.0032997E1,3.6217493E2,3.3126904E1,2.2422738E0,4.533994E0,8.346812E3,1.1785995E1,3.2399193E1,5.6371735E1,4.9469543E0,2.4369907E1,1.0032549E0,1.130254E0,3.63257E0,2.6765166E3,1.1400987E1,4.639241E1,4.3740234E1,1.5356522E3,4.0910603E1,8.904841E2,1.5231316E3,1.7997161E0,7.639894E1,3.2763631E0,1.2347847E0,4.094484E0,1.4693333E2,1.8338919E1,1.4410048E2,6.236534E0,1.1044898E0,1.3051286E2,1.939986E0,8.214834E0,1.8181634E0,3.151694E2,4.700553E1],"tree_param":{"num_deleted":"0","num_feature":"11898","num_nodes":"85","size_leaf_vector":"1"}},{"base_weights":[4.6990308E-1,7.7084196E-1,1.6719577E-1,8.144094E-1,-3.3594838E-1,8.110571E-1,-5.9000716E-2,8.261149E-1,-2.4511805E0,5.0012344E-1,-1.3674977E0,8.477489E-1,-3.4059918E0,6.117551E-1,-4.485425E-1,8.3094037E-1,-6.6127253E0,-2.4017642E-1,-4.3919444E0,-3.1063652E0,6.023779E-1,9.2843527E-1,-2.1828976E0,9.09694E-1,-1.1865026E0,-2.0788736E0,-2.26947E0,-1.8837801E0,7.2201645E-1,2.5814748E-1,-8.930096E-1,8.4824544E-1,-9.6000415E-1,-3.771871E-1,-2.5207684E0,2.656169E-1,-2.9756993E-1,1.2208586E-1,-5.135384E0,-3.349628E-1,-1.1844355E0,-8.979797E-1,6.986285E-1,3.1661966E-1,-2.2660895E-1,6.2032825E-1,-2.516562E0,9.322006E-1,-2.4125862E0,3.0544835E-1,-2.523638E0,-2.853983E-1,-2.4350266E0,-2.8863995E0,-1.5154634E0,-3.3609624E0,7.6244646E-1,5.934914E-1,-1.2192022E0,2.4689076E-2,-1.4764699E0,2.560366E-1,-1.4480078E0,2.9645693E-1,-1.0508283E0,-3.2115695E-1,-1.6827447E0,-7.119546E-1,2.3710842E-1,2.8617698E-1,-2.0145787E-1,2.8425075E-2,-8.3915687E-1,2.8432894E-1,-8.398462E-1,-7.859201E-1,-2.5676852E-1,1.5860802E-1,-7.9241586E-1,-1.9780883E-1,-7.643554E-1,-9.62346E-1,-4.230455E-1,-6.24223E-1,-3.7466556E-1,-5.530841E-1,-1.1554655E0,2.4138293E-1,-5.947365E-1,1.9981025E-1,-8.1848454E-1,2.712332E-1,-6.569946E-1,6.948387E-2,-6.2762403E-1,-1.16965696E-1,-5.86225E-1],"categories":[],"categories_nodes":[],"categories_segments":[],"categories_sizes":[],"default_left":[0,1,0,1,0,1,0,1,0,0,0,1,0,0,0,1,0,0,0,0,0,0,0,1,0,0,0,1,0,1,0,1,0,0,0,0,0,0,0,0,0,0,0,0,0,0,0,1,1,0,0,0,0,1,0,0,1,1,0,1,1,0,0,0,0,0,0,0,0,0,0,0,0,0,0,0,0,0,0,0,0,0,0,0,0,0,0,0,0,0,0,0,0,0,0,0,0],"id":5,"left_children":[1,3,5,7,9,11,13,15,17,19,21,23,25,27,29,31,33,35,37,39,41,43,45,47,49,-1,51,53,55,57,59,61,63,-1,-1,-1,-1,-1,65,-1,-1,-1,67,-1,-1,69,71,73,75,-1,77,-1,79,81,83,85,87,89,91,93,95,-1,-1,-1,-1,-1,-1,-1,-1,-1,-1,-1,-1,-1,-1,-1,-1,-1,-1,-1,-1,-1,-1,-1,-1,-1,-1,-1,-1,-1,-1,-1,-1,-1,-1,-1,-1],"loss_changes":[1.2268633E3,3.2595337E2,9.7817957E2,2.5043457E2,2.2190489E2,2.7306604E2,1.2991371E3,2.3795752E2,9.962535E1,5.4388153E1,2.1749779E2,2.1931421E2,4.5387894E1,5.0400195E2,9.8816846E2,2.014209E2,3.0746674E1,1.1053333E1,4.6462006E1,2.4401817E0,5.0306973E1,7.395605E0,8.1280304E1,1.27960815E2,1.5471968E2,0E0,5.2612305E-1,2.4271881E1,2.9146796E2,6.0275226E2,1.0340286E3,1.9367676E2,3.1264594E2,0E0,0E0,0E0,0E0,0E0,1.4875305E1,0E0,0E0,0E0,4.033873E1,0E0,0E0,4.8932753E0,5.6223846E1,9.967554E1,1.4956512E0,0E0,1.3046509E1,0E0,5.100174E-1,4.8408356E0,6.2676697E0,5.810837E0,2.0225464E2,2.4063199E2,4.6604218E2,3.2967194E2,6.1190576E2,0E0,0E0,0E0,0E0,0E0,0E0,0E0,0E0,0E0,0E0,0E0,0E0,0E0,0E0,0E0,0E0,0E0,0E0,0E0,0E0,0E0,0E0,0E0,0E0,0E0,0E0,0E0,0E0,0E0,0E0,0E0,0E0,0E0,0E0,0E0,0E0],"parents":[2147483647,0,0,1,1,2,2,3,3,4,4,5,5,6,6,7,7,8,8,9,9,10,10,11,11,12,12,13,13,14,14,15,15,16,16,17,17,18,18,19,19,20,20,21,21,22,22,23,23,24,24,26,26,27,27,28,28,29,29,30,30,31,31,32,32,38,38,42,42,45,45,46,46,47,47,48,48,50,50,52,52,53,53,54,54,55,55,56,56,57,57,58,58,59,59,60,60],"right_children":[2,4,6,8,10,12,14,16,18,20,22,24,26,28,30,32,34,36,38,40,42,44,46,48,50,-1,52,54,56,58,60,62,64,-1,-1,-1,-1,-1,66,-1,-1,-1,68,-1,-1,70,72,74,76,-1,78,-1,80,82,84,86,88,90,92,94,96,-1,-1,-1,-1,-1,-1,-1,-1,-1,-1,-1,-1,-1,-1,-1,-1,-1,-1,-1,-1,-1,-1,-1,-1,-1,-1,-1,-1,-1,-1,-1,-1,-1,-1,-1,-1],"split_conditions":[5.1092273E-1,9.896363E-1,4.1974473E-1,4.5668487E-2,9.350656E-1,5.2901745E-2,2.00001E0,4.6318356E-2,3.028157E-1,3.7748826E-1,1.5448259E-1,8.7632075E-2,1.3615756E-1,2.9892728E-1,2.00001E0,1.39944265E-2,1.5088353E-1,1.1875101E-1,7.5064436E-2,6.0903154E-2,7.863356E-2,1.03182174E-1,2.00001E0,9.944829E-1,2.00001E0,-2.0788736E0,1.5251023E-1,3.4047894E-2,5.563189E-1,1.1725474E-2,1.2993199E-1,9.86455E-2,6.614294E-2,-3.771871E-1,-2.5207684E0,2.656169E-1,-2.9756993E-1,1.2208586E-1,1.6388254E-1,-3.349628E-1,-1.1844355E0,-8.979797E-1,3.2182392E-1,3.1661966E-1,-2.2660895E-1,2.00001E0,2.00001E0,6.461334E-2,5.4550406E-2,3.0544835E-1,1.4703819E-1,-2.853983E-1,7.164886E-2,4.4446185E-2,1.2518886E-1,9.116093E-2,4.631374E-2,2.3776095E-2,1.7873573E-1,9.944829E-1,9.9177885E-1,2.560366E-1,-1.4480078E0,2.9645693E-1,-1.0508283E0,-3.2115695E-1,-1.6827447E0,-7.119546E-1,2.3710842E-1,2.8617698E-1,-2.0145787E-1,2.8425075E-2,-8.3915687E-1,2.8432894E-1,-8.398462E-1,-7.859201E-1,-2.5676852E-1,1.5860802E-1,-7.9241586E-1,-1.9780883E-1,-7.643554E-1,-9.62346E-1,-4.230455E-1,-6.24223E-1,-3.7466556E-1,-5.530841E-1,-1.1554655E0,2.4138293E-1,-5.947365E-1,1.9981025E-1,-8.1848454E-1,2.712332E-1,-6.569946E-1,6.948387E-2,-6.2762403E-1,-1.16965696E-1,-5.86225E-1],"split_indices":[11886,11700,5926,4673,2526,2146,11707,1008,4009,2458,2472,7401,340,3881,11694,4883,7,9,4654,3371,708,2478,11889,11695,9334,0,3493,535,341,4469,3832,4365,3341,0,0,0,0,0,6819,0,0,0,3939,0,0,11708,11873,7350,3479,0,130,0,4744,1687,4933,2072,489,3832,4436,11695,11896,0,0,0,0,0,0,0,0,0,0,0,0,0,0,0,0,0,0,0,0,0,0,0,0,0,0,0,0,0,0,0,0,0,0,0,0],"split_type":[0,0,0,0,0,0,0,0,0,0,0,0,0,0,0,0,0,0,0,0,0,0,0,0,0,0,0,0,0,0,0,0,0,0,0,0,0,0,0,0,0,0,0,0,0,0,0,0,0,0,0,0,0,0,0,0,0,0,0,0,0,0,0,0,0,0,0,0,0,0,0,0,0,0,0,0,0,0,0,0,0,0,0,0,0,0,0,0,0,0,0,0,0,0,0,0,0],"sum_hessian":[1.3468165E4,6.753035E3,6.71513E3,6.4975317E3,2.5550316E2,1.7451183E3,4.970011E3,6.475069E3,2.2462914E1,1.4140744E2,1.1409572E2,1.7308574E3,1.4260908E1,1.8257185E3,3.1442927E3,6.4717593E3,3.3098214E0,1.1025701E1,1.1437214E1,3.088763E0,1.3831868E2,2.9865208E1,8.423051E1,1.680245E3,5.061248E1,2.234879E0,1.2026029E1,7.657261E1,1.7491459E3,1.214188E3,1.9301049E3,6.410345E3,6.1413826E1,1.2555383E0,2.0542831E0,4.3438215E0,6.681879E0,1.594881E0,9.842333E0,1.6098001E0,1.4789629E0,2.8213806E0,1.354973E2,2.8118212E1,1.7469958E0,8.868035E0,7.536247E1,1.6696534E3,1.0591545E1,1.9197788E1,3.141469E1,2.09468E0,9.931349E0,1.8735294E1,5.783732E1,1.6345098E1,1.7328008E3,9.900537E2,2.2413422E2,7.505523E2,1.1795526E3,6.4053145E3,5.030831E0,3.5118397E1,2.6295427E1,1.367647E0,8.474686E0,3.2078333E0,1.3228947E2,7.255927E0,1.6121083E0,7.3772817E0,6.798519E1,1.6634622E3,6.1912174E0,8.744973E0,1.8465717E0,1.0372217E0,3.0377468E1,1.0022246E0,8.929124E0,1.4422218E1,4.313075E0,1.6353748E1,4.148357E1,5.156E0,1.1189098E1,1.7072828E3,2.5517965E1,9.696769E2,2.0376867E1,7.034425E1,1.5378996E2,6.845272E2,6.602506E1,3.6072006E2,8.188326E2],"tree_param":{"num_deleted":"0","num_feature":"11898","num_nodes":"97","size_leaf_vector":"1"}},{"base_weights":[4.1836572E-1,7.0875275E-1,1.4671561E-1,8.4074086E-1,3.531561E-1,8.8399076E-1,-3.0468062E-2,8.473934E-1,-4.8413467E0,3.745759E-1,-5.963896E0,-6.4936185E-1,9.2947876E-1,9.4573313E-1,-1.8394987E-1,8.5905045E-1,-2.1656024E0,-1.9978756E0,-6.759892E-1,4.5680684E-1,-1.1975515E0,-3.1988628E0,-1.8610346E0,-7.858641E-1,9.440603E-1,9.808694E-1,-2.4928174E0,4.6974078E-1,-4.935133E-1,8.679455E-1,-2.7755525E0,-2.5075164E-1,-2.307225E0,4.9269834E-1,-3.1518736E0,7.1609396E-1,-2.1250722E0,-2.2225983E-1,-7.145716E-1,9.5916E-1,-6.227176E-1,1.0147654E0,-2.2806196E0,-8.50715E-1,-3.1885114E-1,5.981308E-1,-1.56924E0,1.0542767E0,-6.5770656E-1,2.6256904E-1,-8.9438736E-1,-9.419674E-1,-7.438764E-2,-2.8762367E-1,-7.4013287E-1,1.5342216E-1,-1.6148773E0,-1.8121656E0,-2.5257516E-1,2.7896565E-1,-2.4945723E-1,2.4101664E-1,-6.982496E-1,2.9054698E-1,-7.6963186E-1,3.100226E-1,-5.0636506E-1,-8.102165E-1,-2.526443E-1,1.9811524E-1,-6.2671983E-1,2.4895562E-1,-5.098513E-1,3.253589E-1,-4.421844E-1,-7.1723866E-3,-4.0818417E-1],"categories":[],"categories_nodes":[],"categories_segments":[],"categories_sizes":[],"default_left":[0,0,0,1,1,0,0,1,1,1,1,0,0,1,0,1,0,0,0,1,0,0,0,0,1,1,1,1,0,1,1,0,0,1,0,0,0,0,0,1,0,1,1,0,0,1,0,1,1,0,0,0,0,0,0,0,0,0,0,0,0,0,0,0,0,0,0,0,0,0,0,0,0,0,0,0,0],"id":6,"left_children":[1,3,5,7,9,11,13,15,17,19,21,-1,23,25,27,29,31,-1,-1,33,35,-1,37,-1,39,41,43,45,47,49,51,-1,53,55,57,59,61,-1,-1,63,-1,65,67,-1,-1,69,71,73,75,-1,-1,-1,-1,-1,-1,-1,-1,-1,-1,-1,-1,-1,-1,-1,-1,-1,-1,-1,-1,-1,-1,-1,-1,-1,-1,-1,-1],"loss_changes":[8.8194214E2,2.5334473E2,7.5488354E2,1.5305566E2,2.0041156E2,1.5727588E2,6.983469E2,1.401311E2,7.379425E0,1.8937102E2,7.671677E1,0E0,5.9599976E1,7.895361E1,8.152394E2,1.2921753E2,9.8236847E-1,0E0,0E0,1.8142297E2,1.3087384E2,0E0,5.022602E-1,0E0,5.215338E1,7.169281E1,2.6535034E-1,3.3991147E2,6.954234E2,1.1234448E2,8.25914E0,0E0,5.238724E-1,1.540026E2,8.707361E1,8.892414E0,3.111702E1,0E0,0E0,3.8503723E1,0E0,3.3074585E1,1.8125267E0,0E0,0E0,2.05281E2,2.546782E1,2.1681244E1,1.1013003E3,0E0,0E0,0E0,0E0,0E0,0E0,0E0,0E0,0E0,0E0,0E0,0E0,0E0,0E0,0E0,0E0,0E0,0E0,0E0,0E0,0E0,0E0,0E0,0E0,0E0,0E0,0E0,0E0],"parents":[2147483647,0,0,1,1,2,2,3,3,4,4,5,5,6,6,7,7,8,8,9,9,10,10,12,12,13,13,14,14,15,15,16,16,19,19,20,20,22,22,24,24,25,25,26,26,27,27,28,28,29,29,30,30,32,32,33,33,34,34,35,35,36,36,39,39,41,41,42,42,45,45,46,46,47,47,48,48],"right_children":[2,4,6,8,10,12,14,16,18,20,22,-1,24,26,28,30,32,-1,-1,34,36,-1,38,-1,40,42,44,46,48,50,52,-1,54,56,58,60,62,-1,-1,64,-1,66,68,-1,-1,70,72,74,76,-1,-1,-1,-1,-1,-1,-1,-1,-1,-1,-1,-1,-1,-1,-1,-1,-1,-1,-1,-1,-1,-1,-1,-1,-1,-1,-1,-1],"split_conditions":[5.1092273E-1,2.3910308E-1,3.41489E-2,6.405537E-2,7.0463985E-2,9.303522E-2,2.00001E0,2.9851573E-2,3.6253873E-2,9.90595E-1,3.719959E-2,-6.4936185E-1,6.39161E-2,5.8875524E-2,2.00001E0,7.5224906E-2,1.621804E-1,-1.9978756E0,-6.759892E-1,9.1482304E-2,2.1755573E-1,-3.1988628E0,1.4409353E-1,-7.858641E-1,3.3815574E-2,9.879753E-1,9.3283296E-2,2.4779232E-2,2.00001E0,3.927378E-2,2.6417438E-2,-2.5075164E-1,4.724351E-2,1.039057E-1,2.00001E0,2.8360513E-1,1.6569991E-1,-2.2225983E-1,-7.145716E-1,1.06369026E-1,-6.227176E-1,7.8881264E-2,4.5402095E-2,-8.50715E-1,-3.1885114E-1,2.360954E-2,1.6627574E-1,9.9169946E-1,9.94337E-1,2.6256904E-1,-8.9438736E-1,-9.419674E-1,-7.438764E-2,-2.8762367E-1,-7.4013287E-1,1.5342216E-1,-1.6148773E0,-1.8121656E0,-2.5257516E-1,2.7896565E-1,-2.4945723E-1,2.4101664E-1,-6.982496E-1,2.9054698E-1,-7.6963186E-1,3.100226E-1,-5.0636506E-1,-8.102165E-1,-2.526443E-1,1.9811524E-1,-6.2671983E-1,2.4895562E-1,-5.098513E-1,3.253589E-1,-4.421844E-1,-7.1723866E-3,-4.0818417E-1],"split_indices":[11886,4933,2478,4942,3777,1569,11804,4680,3043,11704,3832,0,1583,2146,11707,4770,1449,0,0,2680,1287,0,19,0,572,11883,5929,535,9334,1489,4399,0,2481,123,11702,3518,1808,0,0,7639,0,7262,2481,0,0,2481,142,11638,11690,0,0,0,0,0,0,0,0,0,0,0,0,0,0,0,0,0,0,0,0,0,0,0,0,0,0,0,0],"split_type":[0,0,0,0,0,0,0,0,0,0,0,0,0,0,0,0,0,0,0,0,0,0,0,0,0,0,0,0,0,0,0,0,0,0,0,0,0,0,0,0,0,0,0,0,0,0,0,0,0,0,0,0,0,0,0,0,0,0,0,0,0,0,0,0,0,0,0,0,0,0,0,0,0,0,0,0,0],"sum_hessian":[1.1180606E4,5.4031587E3,5.7774478E3,3.9395408E3,1.463618E3,1.1186534E3,4.658794E3,3.9357837E3,3.7571015E0,1.4596095E3,4.00853E0,1.5761464E1,1.1028921E3,6.322551E2,4.026539E3,3.9213271E3,1.4456486E1,1.2827191E0,2.4743824E0,1.3877328E3,7.187664E1,1.1232231E0,2.8853073E0,3.781832E0,1.0991102E3,6.2656744E2,5.687735E0,1.2938528E3,2.7326863E3,3.9125132E3,8.813972E0,2.055767E0,1.2400719E1,1.3749215E3,1.2811341E1,2.3539103E1,4.8337543E1,1.6846695E0,1.2006378E0,1.0943207E3,4.7894716E0,6.208044E2,5.763027E0,3.794738E0,1.8929971E0,1.2178727E3,7.598007E1,2.615671E2,2.4711191E3,3.905894E3,6.6191697E0,7.491822E0,1.322151E0,2.056076E0,1.0344643E1,1.3714675E3,3.4539936E0,4.974969E0,7.836372E0,2.1032742E1,2.5063603E0,2.9332962E0,4.5404247E1,1.0921549E3,2.1658373E0,6.1716473E2,3.6396606E0,3.7812347E0,1.9817926E0,1.1910347E3,2.6838003E1,3.6364572E0,7.234362E1,2.5903848E2,2.5286357E0,1.2999825E3,1.1711365E3],"tree_param":{"num_deleted":"0","num_feature":"11898","num_nodes":"77","size_leaf_vector":"1"}},{"base_weights":[3.6574528E-1,6.374819E-1,1.3076824E-1,6.8161184E-1,-5.372295E-1,7.5843954E-1,-5.2994266E-2,7.088032E-1,-1.0056311E0,5.4146713E-1,-1.2961601E0,8.39687E-1,-1.1731849E0,5.7290566E-1,-3.1976652E-1,7.487106E-1,-3.7693474E-1,6.456964E-1,-1.5024736E0,-1.1240011E0,6.906319E-1,3.227361E-1,-2.6256108E0,9.1382855E-1,-1.3636908E-1,2.8937978E-1,-1.683044E0,7.795897E-1,-1.2189329E0,-1.2230121E-2,-1.0465796E0,7.5351185E-1,-2.5429668E0,2.995532E-1,-8.9665085E-1,-4.7684947E-1,2.865012E-1,-3.5468164E-1,-3.4066553E0,8.1368494E-1,-5.42929E-1,3.042878E-1,-1.3011701E0,4.3781555E-1,-3.1914852E0,-2.5203323E0,9.2912525E-1,7.88468E-1,-1.8486731E0,-3.6202544E-1,-1.8675201E0,-2.1570656E0,8.338947E-1,9.393669E-1,-2.1161127E0,4.9721408E-1,-4.912747E-1,1.0145692E0,-1.2777781E0,-1.7936698E0,2.279703E-1,2.2893241E-1,-3.9409924E-1,-2.649872E-1,-1.1709187E0,2.7023715E-1,-3.3368647E-1,2.529546E-1,-7.591726E-1,2.6376283E-1,-2.409667E-1,-7.383294E-1,-1.4962523E0,-3.1819725E-1,-9.239718E-1,2.8326446E-1,-5.955382E-1,2.992056E-1,-4.479241E-1,2.6235545E-1,-6.520144E-1,-5.8229375E-1,-2.4928729E-1,-4.7895926E-1,-8.1328714E-1,-5.427611E-1,2.6636815E-1,3.1765372E-1,-3.3050734E-1,4.8215788E-2,-6.5467566E-1,1.8895593E-1,-3.4906527E-1,2.0798723E-1,-2.4033642E-1,-3.2341883E-2,3.094343E-1,3.214419E-1,-4.308885E-1],"categories":[],"categories_nodes":[],"categories_segments":[],"categories_sizes":[],"default_left":[0,1,0,1,0,0,0,1,0,0,0,0,0,1,1,1,0,0,0,0,1,0,0,0,0,0,0,0,0,0,0,0,0,0,0,0,0,0,0,1,0,0,0,0,0,0,1,0,0,0,1,0,0,1,0,1,0,1,0,0,0,0,0,0,0,0,0,0,0,0,0,0,0,0,0,0,0,0,0,0,0,0,0,0,0,0,0,0,0,0,0,0,0,0,0,0,0,0,0],"id":7,"left_children":[1,3,5,7,9,11,13,15,17,19,21,23,25,27,29,31,33,35,37,-1,39,41,43,45,47,-1,49,51,53,55,57,59,-1,-1,61,-1,-1,-1,63,65,-1,-1,67,69,71,73,75,77,79,-1,81,83,85,87,89,91,93,95,97,-1,-1,-1,-1,-1,-1,-1,-1,-1,-1,-1,-1,-1,-1,-1,-1,-1,-1,-1,-1,-1,-1,-1,-1,-1,-1,-1,-1,-1,-1,-1,-1,-1,-1,-1,-1,-1,-1,-1,-1],"loss_changes":[6.07876E2,2.2924353E2,5.891315E2,1.9595569E2,1.3202534E2,1.8251764E2,6.599963E2,1.8177661E2,5.668625E1,4.5414803E1,2.0414444E2,8.0494385E1,5.2967804E1,4.3843375E2,6.194398E2,1.8535645E2,1.0752727E2,1.2860403E1,2.7984833E1,0E0,2.1640743E1,5.0152252E1,9.149698E1,5.6570923E1,1.2699888E2,0E0,1.1203003E0,1.7079938E2,2.3930515E2,4.7573535E2,3.9394727E2,1.7829517E2,0E0,0E0,7.6299576E1,0E0,0E0,0E0,5.353821E0,1.1598537E1,0E0,0E0,3.7525993E1,5.6271005E0,4.543347E1,6.924553E-1,4.7101257E1,2.635463E1,2.6748512E1,0E0,3.556671E-1,1.732254E0,1.5021307E2,1.0111164E1,1.3433563E1,2.0883757E2,3.6929358E2,1.6960526E0,2.775996E2,0E0,0E0,0E0,0E0,0E0,0E0,0E0,0E0,0E0,0E0,0E0,0E0,0E0,0E0,0E0,0E0,0E0,0E0,0E0,0E0,0E0,0E0,0E0,0E0,0E0,0E0,0E0,0E0,0E0,0E0,0E0,0E0,0E0,0E0,0E0,0E0,0E0,0E0,0E0,0E0],"parents":[2147483647,0,0,1,1,2,2,3,3,4,4,5,5,6,6,7,7,8,8,9,9,10,10,11,11,12,12,13,13,14,14,15,15,16,16,17,17,18,18,20,20,21,21,22,22,23,23,24,24,26,26,27,27,28,28,29,29,30,30,31,31,34,34,38,38,39,39,42,42,43,43,44,44,45,45,46,46,47,47,48,48,50,50,51,51,52,52,53,53,54,54,55,55,56,56,57,57,58,58],"right_children":[2,4,6,8,10,12,14,16,18,20,22,24,26,28,30,32,34,36,38,-1,40,42,44,46,48,-1,50,52,54,56,58,60,-1,-1,62,-1,-1,-1,64,66,-1,-1,68,70,72,74,76,78,80,-1,82,84,86,88,90,92,94,96,98,-1,-1,-1,-1,-1,-1,-1,-1,-1,-1,-1,-1,-1,-1,-1,-1,-1,-1,-1,-1,-1,-1,-1,-1,-1,-1,-1,-1,-1,-1,-1,-1,-1,-1,-1,-1,-1,-1,-1,-1],"split_conditions":[5.1092273E-1,3.8372457E-2,5.811484E-1,1.8423067E-2,2.2163762E-1,2.219598E-1,2.00001E0,9.896363E-1,9.271301E-2,1.10601746E-1,2.7923054E-1,1.1431893E-1,8.122683E-2,9.90595E-1,2.209127E-2,1.0198539E-1,9.880617E-1,8.550943E-2,2.4178413E-1,-1.1240011E0,4.5846377E-2,1.9508973E-1,5.27477E-2,1.5429093E-1,3.6933583E-1,2.8937978E-1,2.00001E0,5.541509E-1,1.9222225E-1,5.7020236E-2,2.00001E0,2.00001E0,-2.5429668E0,2.995532E-1,3.8088303E-2,-4.7684947E-1,2.865012E-1,-3.5468164E-1,4.2534344E-2,7.7035874E-2,-5.42929E-1,3.042878E-1,2.3273696E-1,5.4173518E-2,2.00001E0,8.3013415E-2,3.852564E-2,4.239344E-1,1.4619222E-1,-3.6202544E-1,8.353441E-2,2.00001E0,2.3390369E-1,9.9169946E-1,1.1634824E-1,2.350357E-2,2.3704503E-1,1.6589742E-2,9.3440914E-1,-1.7936698E0,2.279703E-1,2.2893241E-1,-3.9409924E-1,-2.649872E-1,-1.1709187E0,2.7023715E-1,-3.3368647E-1,2.529546E-1,-7.591726E-1,2.6376283E-1,-2.409667E-1,-7.383294E-1,-1.4962523E0,-3.1819725E-1,-9.239718E-1,2.8326446E-1,-5.955382E-1,2.992056E-1,-4.479241E-1,2.6235545E-1,-6.520144E-1,-5.8229375E-1,-2.4928729E-1,-4.7895926E-1,-8.1328714E-1,-5.427611E-1,2.6636815E-1,3.1765372E-1,-3.3050734E-1,4.8215788E-2,-6.5467566E-1,1.8895593E-1,-3.4906527E-1,2.0798723E-1,-2.4033642E-1,-3.2341883E-2,3.094343E-1,3.214419E-1,-4.308885E-1],"split_indices":[11886,4177,1578,1821,7305,6016,11890,11700,3038,6112,2883,4469,51,11704,4469,4559,11704,3822,1356,0,2226,2472,4741,1029,5152,0,7821,6771,6859,4933,9334,11827,0,0,1593,0,0,0,1185,5128,0,0,620,17,11690,4883,4274,7186,577,0,665,11638,4962,11638,3605,2273,7950,3832,11638,0,0,0,0,0,0,0,0,0,0,0,0,0,0,0,0,0,0,0,0,0,0,0,0,0,0,0,0,0,0,0,0,0,0,0,0,0,0,0,0],"split_type":[0,0,0,0,0,0,0,0,0,0,0,0,0,0,0,0,0,0,0,0,0,0,0,0,0,0,0,0,0,0,0,0,0,0,0,0,0,0,0,0,0,0,0,0,0,0,0,0,0,0,0,0,0,0,0,0,0,0,0,0,0,0,0,0,0,0,0,0,0,0,0,0,0,0,0,0,0,0,0,0,0,0,0,0,0,0,0,0,0,0,0,0,0,0,0,0,0,0,0],"sum_hessian":[9.520402E3,4.4140776E3,5.1063247E3,4.254664E3,1.5941356E2,1.1557029E3,3.9506218E3,4.187755E3,6.6909225E1,6.595532E1,9.345824E1,1.1095966E3,4.610625E1,1.180288E3,2.7703337E3,4.0395862E3,1.4816875E2,1.5405901E1,5.1503326E1,1.4064187E0,6.4548904E1,4.2483074E1,5.0975166E1,1.0313208E3,7.827575E1,8.706969E0,3.739928E1,1.058731E3,1.21557045E2,1.9473629E3,8.229709E2,4.0384026E3,1.1834489E0,4.0380142E1,1.07788605E2,1.3696082E0,1.4036292E1,4.547694E1,6.0263863E0,6.2164173E1,2.384735E0,3.0057985E1,1.2425089E1,7.9832444E0,4.299192E1,3.8472152E0,1.0274736E3,5.1175007E1,2.7100742E1,1.2546757E1,2.4852524E1,1.8519667E1,1.0402112E3,3.567896E1,8.587808E1,9.437189E2,1.0036441E3,8.266041E1,7.403105E2,2.94257E0,4.0354602E3,2.1477169E1,8.631144E1,1.4475391E0,4.5788474E0,5.99836E1,2.1805694E0,4.6422105E0,7.7828784E0,6.1038656E0,1.8793788E0,3.2247967E1,1.0743954E1,1.8685322E0,1.978683E0,1.02285345E3,4.620169E0,4.7398376E1,3.776631E0,2.706788E0,2.4393955E1,2.2393057E1,2.4594665E0,1.1134255E1,7.385411E0,2.0175491E1,1.02003577E3,3.416051E1,1.5184487E0,2.3838766E0,8.349421E1,8.744969E2,6.922199E1,2.0783577E2,7.9580835E2,1.1448305E0,8.151558E1,4.6431175E1,6.9387933E2],"tree_param":{"num_deleted":"0","num_feature":"11898","num_nodes":"99","size_leaf_vector":"1"}},{"base_weights":[3.2109863E-1,4.847049E-1,-2.2682454E-2,5.111872E-1,-1.8004755E0,9.1672E-1,-1.7984115E-1,5.3627723E-1,-1.6030965E0,2.3903447E-1,-1.9693155E0,1.0784297E0,-3.0788177E-1,3.0869764E-1,-2.7376363E-1,5.911995E-1,-3.711756E-1,5.231759E-1,-1.735431E0,-2.044094E0,-3.1094775E-1,-6.8170154E-1,1.1040905E0,9.109379E-1,-1.0748658E0,6.0176045E-1,-4.2445758E-1,6.094845E-1,-1.9992739E0,7.440804E-1,-9.188234E-1,2.1423265E-1,-5.936598E-3,2.5931282E-2,-1.7678573E0,-2.7010503E0,-1.8697367E0,9.6355945E-1,5.084742E-1,2.8716302E-1,5.963124E-2,-1.9126371E0,2.990153E-1,7.058308E-1,-1.4493E0,5.748189E-1,-5.8044475E-1,1.8740377E-1,-6.347387E-1,2.133279E-1,-6.6305447E-1,2.7994838E-1,-2.0977451E-1,2.6377118E-1,-3.9592507E-1,-7.28725E-1,-4.765462E-1,-2.3219869E-1,-8.931847E-1,-5.8269453E-1,-2.8362247E-1,2.947345E-1,-5.422725E-1,1.6160782E-1,-6.259147E-1,2.2852154E-1,-5.543265E-1,1.8247683E-1,-5.156856E-1,2.0506103E-1,-5.6017756E-1,3.318371E-2,-2.5438154E-1],"categories":[],"categories_nodes":[],"categories_segments":[],"categories_sizes":[],"default_left":[0,1,0,1,0,1,0,1,0,0,1,0,0,0,0,1,0,0,0,0,0,0,1,1,1,1,0,1,0,1,0,0,0,0,0,0,1,1,0,0,0,0,0,1,0,1,0,0,0,0,0,0,0,0,0,0,0,0,0,0,0,0,0,0,0,0,0,0,0,0,0,0,0],"id":8,"left_children":[1,3,5,7,9,11,13,15,17,-1,19,21,23,-1,25,27,29,31,33,35,-1,-1,37,39,41,43,45,47,49,51,53,-1,-1,-1,55,57,59,61,-1,-1,-1,63,-1,65,67,69,71,-1,-1,-1,-1,-1,-1,-1,-1,-1,-1,-1,-1,-1,-1,-1,-1,-1,-1,-1,-1,-1,-1,-1,-1,-1,-1],"loss_changes":[4.534969E2,3.3152063E2,3.8412982E2,2.8737683E2,2.9110184E1,7.4178345E1,2.533392E2,2.6628992E2,1.8801956E1,0E0,2.0149078E0,3.0851501E1,4.2369312E1,0E0,2.7322638E2,2.3967542E2,1.8714078E2,4.8006594E-1,3.703247E0,1.1159973E0,0E0,0E0,2.5583435E1,3.9110756E-1,4.98656E1,6.596189E1,2.7556607E2,2.0836072E2,2.1875717E1,2.824115E1,1.4908072E2,0E0,0E0,0E0,3.1503754E0,2.5085144E0,1.2356567E0,1.5758209E1,0E0,0E0,0E0,9.650215E0,0E0,4.2839264E1,9.378223E0,6.4708176E1,2.8251587E2,0E0,0E0,0E0,0E0,0E0,0E0,0E0,0E0,0E0,0E0,0E0,0E0,0E0,0E0,0E0,0E0,0E0,0E0,0E0,0E0,0E0,0E0,0E0,0E0,0E0,0E0],"parents":[2147483647,0,0,1,1,2,2,3,3,4,4,5,5,6,6,7,7,8,8,10,10,11,11,12,12,14,14,15,15,16,16,17,17,18,18,19,19,22,22,23,23,24,24,25,25,26,26,27,27,28,28,29,29,30,30,34,34,35,35,36,36,37,37,41,41,43,43,44,44,45,45,46,46],"right_children":[2,4,6,8,10,12,14,16,18,-1,20,22,24,-1,26,28,30,32,34,36,-1,-1,38,40,42,44,46,48,50,52,54,-1,-1,-1,56,58,60,62,-1,-1,-1,64,-1,66,68,70,72,-1,-1,-1,-1,-1,-1,-1,-1,-1,-1,-1,-1,-1,-1,-1,-1,-1,-1,-1,-1,-1,-1,-1,-1,-1,-1],"split_conditions":[1.0591375E0,1.1431893E-1,1.1411328E0,5.3979337E-2,1.7424315E-2,2.6613083E-2,9.9169946E-1,2.3811404E-2,4.5716047E-2,2.3903447E-1,3.341203E-2,2.4946085E-1,2.00001E0,3.0869764E-1,1.3171631E-1,5.622648E-2,1.443341E-1,4.54981E-2,2.641903E-1,-1.8575149E0,-3.1094775E-1,-6.8170154E-1,1.8428329E-1,6.639613E-2,1.2421106E-1,4.0424336E-2,1.19485155E-1,1E0,1.05145596E-1,3.0662602E-2,1.2265435E-1,2.1423265E-1,-5.936598E-3,2.5931282E-2,-1.8575149E0,5.2234888E-2,5.812202E-2,1.24421E-1,5.084742E-1,2.8716302E-1,5.963124E-2,1.8515478E-1,2.990153E-1,7.192622E-2,5.8710996E-2,6.5763384E-2,4.9873698E-1,1.8740377E-1,-6.347387E-1,2.133279E-1,-6.6305447E-1,2.7994838E-1,-2.0977451E-1,2.6377118E-1,-3.9592507E-1,-7.28725E-1,-4.765462E-1,-2.3219869E-1,-8.931847E-1,-5.8269453E-1,-2.8362247E-1,2.947345E-1,-5.422725E-1,1.6160782E-1,-6.259147E-1,2.2852154E-1,-5.543265E-1,1.8247683E-1,-5.156856E-1,2.0506103E-1,-5.6017756E-1,3.318371E-2,-2.5438154E-1],"split_indices":[4933,4469,1613,4744,3837,2607,11638,2072,4223,0,3223,7332,11848,0,346,5268,6725,151,1424,11886,0,0,7539,339,1322,838,6684,8522,118,676,4845,0,0,0,11886,1143,2655,6485,0,0,0,587,0,1185,151,3939,6254,0,0,0,0,0,0,0,0,0,0,0,0,0,0,0,0,0,0,0,0,0,0,0,0,0,0],"split_type":[0,0,0,0,0,0,0,0,0,0,0,0,0,0,0,0,0,0,0,0,0,0,0,0,0,0,0,0,0,0,0,0,0,0,0,0,0,0,0,0,0,0,0,0,0,0,0,0,0,0,0,0,0,0,0,0,0,0,0,0,0,0,0,0,0,0,0,0,0,0,0,0,0],"sum_hessian":[8.0617207E3,5.461953E3,2.5997673E3,5.400149E3,6.1804417E1,3.719049E2,2.2278625E3,5.3375547E3,6.2593964E1,3.5454733E0,5.8258945E1,3.286286E2,4.3276318E1,1.5990053E2,2.067962E3,5.0332715E3,3.0428323E2,3.494411E0,5.9099552E1,5.2832413E1,5.4265327E0,1.8321737E0,3.2679642E2,1.6642275E1,2.663404E1,3.0322824E2,1.7647336E3,4.9987524E3,3.4519188E1,1.0009215E2,2.0419109E2,2.3520956E0,1.1423156E0,1.0043545E0,5.80952E1,8.041519E0,4.4790894E1,2.6612726E2,6.0669167E1,1.5303848E1,1.3384271E0,1.9019196E1,7.614846E0,2.892097E2,1.4018567E1,2.3791707E2,1.5268167E3,4.971803E3,2.6949347E1,2.3209627E0,3.2198223E1,8.881107E1,1.1281077E1,3.7011295E1,1.671798E2,9.720272E0,4.8374928E1,1.4848504E0,6.556669E0,4.0508812E1,4.2820807E0,2.6496664E2,1.1606162E0,1.1197938E0,1.7899403E1,2.837001E2,5.5095634E0,1.4788234E0,1.2539743E1,2.2846617E2,9.45089E0,4.262379E2,1.1005787E3],"tree_param":{"num_deleted":"0","num_feature":"11898","num_nodes":"73","size_leaf_vector":"1"}},{"base_weights":[2.6555434E-1,5.2782893E-1,5.5096623E-2,5.622541E-1,-1.1754447E0,6.777003E-1,-1.003015E-1,5.884298E-1,-1.5873885E0,2.9917717E-1,-2.0690453E0,9.116505E-1,-3.28486E-2,8.023308E-2,-8.0836654E-1,6.1174345E-1,-1.5408603E0,-2.3373463E0,4.0094927E-1,-4.471122E-1,-3.684915E0,9.297599E-1,-5.064725E-1,6.5514827E-1,-1.8137801E0,1.5295939E-1,-1.6417159E0,-1.023774E0,7.740024E-1,6.425322E-1,-9.3288296E-1,-2.2359796E0,7.207955E-1,-3.2555525E0,-5.3717846E-1,7.8780484E-1,-4.2945608E-1,8.8066775E-1,-1.9543687E0,-6.484678E-1,-4.1150064E0,9.482005E-1,-4.2041504E-1,8.6356133E-1,-1.4674221E0,-9.1607E-2,-1.8429414E0,2.9864964E-1,-5.575192E-1,6.3929373E-1,-1.9821653E0,9.864453E-1,-1.2128664E0,8.559927E-1,-5.374111E-1,1.978768E-1,-6.129352E-1,2.9417294E-1,-5.312585E-1,1.0229602E-1,-8.400937E-1,3.0076586E-2,2.6499927E-1,-1.0796087E0,-2.5255466E-1,2.6931906E-1,3.8870638E-3,4.7109723E-2,2.7951753E-1,-7.709419E-1,2.0162843E-1,2.876625E-3,-2.620331E-1,-3.5368448E-1,-1.3905158E0,-4.3542406E-1,2.8954735E-1,-4.1780564E-1,2.7925923E-1,1.7526273E-1,-5.251813E-1,-5.786127E-1,-3.052523E-1,1.4877728E-1,-9.334338E-2,3.0717778E-1,-3.1309068E-1,-2.4330874E-1,2.8373986E-1,-4.969512E-1,-7.4240917E-1,3.1247047E-1,-1.6943406E-1,3.2459986E-1,-4.0765548E-1,2.8051051E-1,-5.0209475E-1],"categories":[],"categories_nodes":[],"categories_segments":[],"categories_sizes":[],"default_left":[0,1,0,1,0,0,1,1,1,0,0,1,0,1,1,1,1,1,0,0,0,1,0,1,0,1,0,0,1,1,0,0,0,1,0,1,0,0,1,0,0,0,0,0,0,0,1,1,0,0,0,1,0,1,0,0,0,0,0,0,0,0,0,0,0,0,0,0,0,0,0,0,0,0,0,0,0,0,0,0,0,0,0,0,0,0,0,0,0,0,0,0,0,0,0,0,0],"id":9,"left_children":[1,3,5,7,9,11,13,15,17,-1,19,21,23,25,27,29,31,33,35,37,39,41,-1,43,45,47,49,51,53,55,57,59,61,63,-1,65,-1,67,69,71,73,75,-1,77,79,-1,81,83,85,87,89,91,93,95,-1,-1,-1,-1,-1,-1,-1,-1,-1,-1,-1,-1,-1,-1,-1,-1,-1,-1,-1,-1,-1,-1,-1,-1,-1,-1,-1,-1,-1,-1,-1,-1,-1,-1,-1,-1,-1,-1,-1,-1,-1,-1,-1],"loss_changes":[3.949827E2,1.874635E2,3.84314E2,1.7668268E2,1.2522872E2,1.3191791E2,4.0644794E2,1.541637E2,5.7371597E1,0E0,1.1701132E2,2.9673492E1,2.431637E2,3.1759998E2,2.2097629E2,1.4583093E2,5.4612366E1,8.040283E0,9.080697E0,4.9218784E1,2.6770203E1,2.6838623E1,0E0,6.461E1,1.8696289E0,2.5193668E2,8.107962E1,2.174859E2,1.7933212E1,1.3853479E2,9.8086716E1,3.8810806E1,7.87096E-1,4.498108E0,0E0,8.323002E-1,0E0,3.4535122E-1,2.019653E1,5.9816873E-1,2.439853E1,2.5382446E1,0E0,2.119143E1,8.676035E0,0E0,1.8640137E0,2.4304391E2,3.1952808E2,7.036598E0,1.0283936E1,4.8186493E0,1.7585754E2,1.6807331E1,0E0,0E0,0E0,0E0,0E0,0E0,0E0,0E0,0E0,0E0,0E0,0E0,0E0,0E0,0E0,0E0,0E0,0E0,0E0,0E0,0E0,0E0,0E0,0E0,0E0,0E0,0E0,0E0,0E0,0E0,0E0,0E0,0E0,0E0,0E0,0E0,0E0,0E0,0E0,0E0,0E0,0E0,0E0],"parents":[2147483647,0,0,1,1,2,2,3,3,4,4,5,5,6,6,7,7,8,8,10,10,11,11,12,12,13,13,14,14,15,15,16,16,17,17,18,18,19,19,20,20,21,21,23,23,24,24,25,25,26,26,27,27,28,28,29,29,30,30,31,31,32,32,33,33,35,35,37,37,38,38,39,39,40,40,41,41,43,43,44,44,46,46,47,47,48,48,49,49,50,50,51,51,52,52,53,53],"right_children":[2,4,6,8,10,12,14,16,18,-1,20,22,24,26,28,30,32,34,36,38,40,42,-1,44,46,48,50,52,54,56,58,60,62,64,-1,66,-1,68,70,72,74,76,-1,78,80,-1,82,84,86,88,90,92,94,96,-1,-1,-1,-1,-1,-1,-1,-1,-1,-1,-1,-1,-1,-1,-1,-1,-1,-1,-1,-1,-1,-1,-1,-1,-1,-1,-1,-1,-1,-1,-1,-1,-1,-1,-1,-1,-1,-1,-1,-1,-1,-1,-1],"split_conditions":[5.1092273E-1,5.063004E-2,5.811484E-1,7.890675E-2,9.6209876E-2,2.5353044E-1,2.6950587E-2,9.944829E-1,4.2279538E-2,2.9917717E-1,1.4522757E-1,4.1163355E-2,9.147351E-2,5.0075434E-2,1.4715442E-1,1.39944265E-2,1.0806994E-1,5.622648E-2,2.00001E0,9.082928E-2,1.0411715E-1,9.944829E-1,-5.064725E-1,2.8541425E-2,1.151892E-1,9.90595E-1,2.1263218E-1,1.7306876E-1,6.734707E-2,7.46474E-2,1.1522305E-1,6.1493707E-1,1.6716895E-1,5.459385E-2,-5.3717846E-1,1.6434753E-2,-4.2945608E-1,4.4020187E-2,8.266304E-2,5.5985354E-2,2.00001E0,2.4179092E-1,-4.2041504E-1,1.552479E-1,2.7688507E-2,-9.1607E-2,4.6054404E-2,1.6831573E-2,2.00001E0,1.4192949E-1,2.00001E0,4.176409E-2,6.865611E-1,1.3608843E-1,-5.374111E-1,1.978768E-1,-6.129352E-1,2.9417294E-1,-5.312585E-1,1.0229602E-1,-8.400937E-1,3.0076586E-2,2.6499927E-1,-1.0796087E0,-2.5255466E-1,2.6931906E-1,3.8870638E-3,4.7109723E-2,2.7951753E-1,-7.709419E-1,2.0162843E-1,2.876625E-3,-2.620331E-1,-3.5368448E-1,-1.3905158E0,-4.3542406E-1,2.8954735E-1,-4.1780564E-1,2.7925923E-1,1.7526273E-1,-5.251813E-1,-5.786127E-1,-3.052523E-1,1.4877728E-1,-9.334338E-2,3.0717778E-1,-3.1309068E-1,-2.4330874E-1,2.8373986E-1,-4.969512E-1,-7.4240917E-1,3.1247047E-1,-1.6943406E-1,3.2459986E-1,-4.0765548E-1,2.8051051E-1,-5.0209475E-1],"split_indices":[11886,4365,1578,6819,1254,3493,2680,11695,4549,0,4069,1143,1291,7238,6966,4883,6254,5268,11694,4594,2479,11695,0,4933,6543,11704,1995,4494,3290,3389,502,448,7047,1344,0,4941,0,816,17,2479,11704,1029,0,3560,1,0,2655,4469,9334,13,11638,7981,6207,6473,0,0,0,0,0,0,0,0,0,0,0,0,0,0,0,0,0,0,0,0,0,0,0,0,0,0,0,0,0,0,0,0,0,0,0,0,0,0,0,0,0,0,0],"split_type":[0,0,0,0,0,0,0,0,0,0,0,0,0,0,0,0,0,0,0,0,0,0,0,0,0,0,0,0,0,0,0,0,0,0,0,0,0,0,0,0,0,0,0,0,0,0,0,0,0,0,0,0,0,0,0,0,0,0,0,0,0,0,0,0,0,0,0,0,0,0,0,0,0,0,0,0,0,0,0,0,0,0,0,0,0,0,0,0,0,0,0,0,0,0,0,0,0],"sum_hessian":[7.155307E3,3.1848306E3,3.9704763E3,3.1223933E3,6.2437336E1,7.9239185E2,3.1780845E3,3.0855474E3,3.684577E1,1.8162066E1,4.427527E1,5.9590533E2,1.9648654E2,2.5331077E3,6.44977E2,3.0528345E3,3.2712864E1,2.6627087E1,1.0218685E1,2.2733332E1,2.1541939E1,5.924212E2,3.4840903E0,1.4218916E2,5.429738E1,2.4313318E3,1.0177584E2,5.680073E2,7.696967E1,2.9937449E3,5.9089775E1,2.5030958E1,7.681905E0,8.0886965E0,1.853839E1,8.908156E0,1.3105294E0,1.2307267E1,1.0426065E1,2.98383E0,1.8558107E1,5.883602E2,4.061014E0,1.3001616E2,1.2173004E1,1.2473465E0,5.3050034E1,2.0180844E3,4.1324738E2,1.3103649E1,8.8672195E1,4.8473587E1,5.1953375E2,7.523157E1,1.7381026E0,2.9756006E3,1.814419E1,1.7944572E1,4.1145203E1,4.567898E0,2.046306E1,1.9300454E0,5.751859E0,6.652066E0,1.4366307E0,7.6625104E0,1.2456456E0,1.0797384E0,1.1227529E1,8.4642725E0,1.9617925E0,1.0041274E0,1.9797027E0,3.2840652E0,1.5274043E1,3.5349734E0,5.8482526E2,3.1955721E0,1.2682059E2,1.3474951E0,1.0825509E1,4.6845875E1,6.2041564E0,1.5249382E3,4.9314615E2,9.690088E1,3.163465E2,1.9989549E0,1.1104694E1,5.6005E1,3.2667194E1,4.712746E1,1.346126E0,3.0689365E1,4.8884436E2,7.356334E1,1.6682261E0],"tree_param":{"num_deleted":"0","num_feature":"11898","num_nodes":"97","size_leaf_vector":"1"}},{"base_weights":[2.2468933E-1,3.081189E-1,1.5010703E-1,9.353445E-1,6.804659E-2,9.5747566E-1,-7.8321743E-1,6.643124E-1,-4.105475E-2,9.794873E-1,-1.3366418E0,7.351805E-1,-1.8070278E0,8.59405E-1,-1.3065274E-1,-4.63223E-1,9.9317074E-1,-4.7835907E-1,-3.3162307E-2,7.977286E-1,-1.3440884E0,4.8037562E-1,-2.2604685E0,8.781216E-1,-9.232281E-1,4.9251005E-1,-2.6110053E-1,-5.215519E-1,3.0103403E-1,2.513748E-1,-5.0166816E-1,2.1658242E-1,-6.209889E-1,-5.2804235E-2,2.1736397E-1,-8.7619805E-1,-4.1735554E-1,2.7662393E-1,-2.542363E-1,1.7698617E-1,-2.142178E-1,1.961273E-1,-1.0950341E-1],"categories":[],"categories_nodes":[],"categories_segments":[],"categories_sizes":[],"default_left":[0,0,0,1,0,1,0,1,0,0,1,1,0,1,0,0,0,0,0,1,0,0,1,1,0,1,0,0,0,0,0,0,0,0,0,0,0,0,0,0,0,0,0],"id":10,"left_children":[1,-1,3,5,7,9,-1,11,13,15,17,19,21,23,25,-1,27,-1,-1,29,31,33,35,37,-1,39,41,-1,-1,-1,-1,-1,-1,-1,-1,-1,-1,-1,-1,-1,-1,-1,-1],"loss_changes":[3.7335886E2,0E0,3.679942E2,4.4906494E1,3.3651913E2,2.8463654E1,0E0,1.4145941E2,3.5295834E2,1.994574E1,1.5733805E0,1.0232202E2,2.4519974E1,3.1875244E1,3.2354312E2,0E0,1.6648315E1,0E0,0E0,7.648343E1,3.6148617E1,8.58781E-1,6.858597E0,3.072995E1,0E0,8.143082E1,3.1304578E2,0E0,0E0,0E0,0E0,0E0,0E0,0E0,0E0,0E0,0E0,0E0,0E0,0E0,0E0,0E0,0E0],"parents":[2147483647,0,0,2,2,3,3,4,4,5,5,7,7,8,8,9,9,10,10,11,11,12,12,13,13,14,14,16,16,19,19,20,20,21,21,22,22,23,23,25,25,26,26],"right_children":[2,-1,4,6,8,10,-1,12,14,16,18,20,22,24,26,-1,28,-1,-1,30,32,34,36,38,-1,40,42,-1,-1,-1,-1,-1,-1,-1,-1,-1,-1,-1,-1,-1,-1,-1,-1],"split_conditions":[9.9169946E-1,3.081189E-1,2.00001E0,6.318999E-2,2.471663E-1,1.1442499E-1,-7.8321743E-1,5.8362495E-2,2.3388917E-2,2.3910266E-1,6.3887626E-2,2.4289088E-2,6.6465124E-2,1.1421451E-1,1.3910797E-1,-4.63223E-1,1.7003801E-1,-4.7835907E-1,-3.3162307E-2,3.652149E-2,2.8798768E-1,4.5606416E-2,2.4439894E-2,2.5180267E-2,-9.232281E-1,3.7517205E-2,2.00001E0,-5.215519E-1,3.0103403E-1,2.513748E-1,-5.0166816E-1,2.1658242E-1,-6.209889E-1,-5.2804235E-2,2.1736397E-1,-8.7619805E-1,-4.1735554E-1,2.7662393E-1,-2.542363E-1,1.7698617E-1,-2.142178E-1,1.961273E-1,-1.0950341E-1],"split_indices":[11638,0,10445,7443,2165,7981,0,722,3832,343,5041,838,3038,3476,346,0,4672,0,0,923,6268,2974,4469,4770,0,3896,11848,0,0,0,0,0,0,0,0,0,0,0,0,0,0,0,0],"split_type":[0,0,0,0,0,0,0,0,0,0,0,0,0,0,0,0,0,0,0,0,0,0,0,0,0,0,0,0,0,0,0,0,0,0,0,0,0,0,0,0,0,0,0],"sum_hessian":[6.2405625E3,5.2965375E2,5.7109087E3,5.3936066E2,5.171548E3,5.367408E2,2.6198323E0,7.9911237E2,4.3724355E3,5.322074E2,4.5333853E0,7.775188E2,2.1593582E1,3.94918E2,3.9775176E3,2.2670333E0,5.2994037E2,3.4973016E0,1.0360836E0,7.55411E2,2.2107775E1,3.5625792E0,1.8031004E1,3.938226E2,1.0953774E0,6.880163E2,3.2895012E3,1.3557686E0,5.285846E2,7.4396704E2,1.1443959E1,5.749267E0,1.635851E1,1.0416125E0,2.5209668E0,8.906768E0,9.124235E0,3.8449347E2,9.329127E0,6.3707635E2,5.0939934E1,3.3497775E2,2.9545237E3],"tree_param":{"num_deleted":"0","num_feature":"11898","num_nodes":"43","size_leaf_vector":"1"}},{"base_weights":[1.8611647E-1,3.0573067E-1,1.2441524E-1,8.719877E-1,5.1975235E-2,-4.3555924E-1,9.0552336E-1,7.422113E-1,-4.4164702E-2,9.314561E-1,-3.940819E-1,8.0193007E-1,-1.3933486E0,8.8445956E-1,-1.3423178E-1,9.468293E-1,-6.811472E-1,-5.1092005E-1,8.3474493E-1,1.149313E-1,-4.5981956E-1,9.346346E-1,-2.5760188E0,7.867365E-1,-2.2915155E-1,-4.982639E-1,2.8902924E-1,2.5717887E-1,-6.265901E-1,2.9294127E-1,-2.394942E-1,-1.3339072E-1,-1.011862E0,2.544498E-1,-1.0683639E0,3.037528E-1,-9.048324E-2],"categories":[],"categories_nodes":[],"categories_segments":[],"categories_sizes":[],"default_left":[0,0,0,0,0,0,1,1,0,1,0,0,0,1,0,0,0,0,1,0,0,1,0,1,0,0,0,0,0,0,0,0,0,0,0,0,0],"id":11,"left_children":[1,-1,3,5,7,-1,9,11,13,15,-1,17,19,21,23,25,-1,-1,27,-1,-1,29,31,33,35,-1,-1,-1,-1,-1,-1,-1,-1,-1,-1,-1,-1],"loss_changes":[2.9507748E2,0E0,2.896103E2,3.8133118E1,3.2368542E2,0E0,2.8060455E1,7.7170135E1,3.5825385E2,2.4868622E1,0E0,4.9159943E1,4.6944237E0,6.8164276E1,3.414802E2,2.15159E1,0E0,0E0,3.957013E1,0E0,0E0,2.7897308E1,8.145435E0,1.0051395E2,3.1881714E2,0E0,0E0,0E0,0E0,0E0,0E0,0E0,0E0,0E0,0E0,0E0,0E0],"parents":[2147483647,0,0,2,2,3,3,4,4,6,6,7,7,8,8,9,9,11,11,12,12,13,13,14,14,15,15,18,18,21,21,22,22,23,23,24,24],"right_children":[2,-1,4,6,8,-1,10,12,14,16,-1,18,20,22,24,26,-1,-1,28,-1,-1,30,32,34,36,-1,-1,-1,-1,-1,-1,-1,-1,-1,-1,-1,-1],"split_conditions":[9.9169946E-1,3.0573067E-1,2.00001E0,4.5882794E-1,1.1411328E0,-4.3555924E-1,3.329745E-2,8.604033E-2,3.6769494E-1,8.849083E-2,-3.940819E-1,1.4591138E-1,1.7376393E-1,9.971319E-1,1.2602885E-1,1.2718041E-1,-6.811472E-1,-5.1092005E-1,2.7877657E-2,1.149313E-1,-4.5981956E-1,9.94337E-1,2.0100012E-1,4.0941462E-2,2.00001E0,-4.982639E-1,2.8902924E-1,2.5717887E-1,-6.265901E-1,2.9294127E-1,-2.394942E-1,-1.3339072E-1,-1.011862E0,2.544498E-1,-1.0683639E0,3.037528E-1,-9.048324E-2],"split_indices":[11638,0,11804,1768,1613,0,3088,3939,1472,1050,0,2666,6215,11895,4654,7309,0,0,2663,0,0,11690,6938,1642,9334,0,0,0,0,0,0,0,0,0,0,0,0],"split_type":[0,0,0,0,0,0,0,0,0,0,0,0,0,0,0,0,0,0,0,0,0,0,0,0,0,0,0,0,0,0,0,0,0,0,0,0,0],"sum_hessian":[5.742693E3,3.949692E2,5.3477236E3,4.7144354E2,4.8762803E3,6.104994E0,4.6533856E2,5.9533765E2,4.2809424E3,4.60537E2,4.8015685E0,5.7975E2,1.5587641E1,3.777175E2,3.903225E3,4.5903735E2,1.4996427E0,6.838242E0,5.7291174E2,1.0068368E0,1.4580804E1,3.7303857E2,4.678947E0,3.6401788E2,3.539207E3,2.2773232E0,4.5676004E2,5.692339E2,3.6778824E0,3.6467133E2,8.367236E0,1.6972426E0,2.9817042E0,3.5974026E2,4.2776184E0,1.9443292E2,3.3447742E3],"tree_param":{"num_deleted":"0","num_feature":"11898","num_nodes":"37","size_leaf_vector":"1"}},{"base_weights":[1.5482059E-1,7.0515275E-1,6.420534E-2,7.7647305E-1,-1.1042435E0,1.0386885E-1,-1.3053402E0,8.191619E-1,-1.0631078E0,-1.469028E0,7.133648E-1,3.160781E-2,8.056854E-1,-1.801194E0,5.57221E-1,8.350298E-1,-2.7572184E0,2.4499922E-1,-5.0191176E-1,1.7871642E-1,-1.623408E0,2.5237389E-2,2.5018108E-1,3.1453192E-1,-2.0982858E-2,7.699486E-1,1.4496294E0,-1.9739255E0,-9.590163E-2,9.503844E-1,-4.0660098E-1,8.5584694E-1,-1.7936966E0,-1.0119344E0,-2.624618E-1,-5.485336E-1,-3.3924365E-1,4.445978E-1,-1.4250672E-1,8.1584895E-1,-1.8115792E0,-3.4283338E0,-1.6915687E0,-3.5526097E-1,2.4053663E-1,1.7927453E-2,2.9716396E-1,-4.083187E-1,2.630497E-1,-6.244857E-1,-1.3595666E-1,1.4934668E-1,-4.2350173E-1,2.5779334E-1,-6.760611E-2,2.5577715E-1,-4.3681076E-1,-8.211679E-2,-6.187189E-1,2.956579E-2,-1.1391094E0,-4.7137365E-1,-8.388943E-1],"categories":[],"categories_nodes":[],"categories_segments":[],"categories_sizes":[],"default_left":[0,1,1,1,1,1,1,1,0,0,0,0,1,1,0,1,1,0,0,0,1,0,0,0,0,1,0,0,1,1,0,0,1,0,0,0,0,1,0,1,0,0,1,0,0,0,0,0,0,0,0,0,0,0,0,0,0,0,0,0,0,0,0],"id":12,"left_children":[1,3,5,7,9,11,13,15,17,19,21,23,25,27,29,31,33,-1,-1,-1,35,-1,-1,-1,37,39,-1,41,43,45,-1,47,49,-1,-1,-1,-1,51,53,55,57,59,61,-1,-1,-1,-1,-1,-1,-1,-1,-1,-1,-1,-1,-1,-1,-1,-1,-1,-1,-1,-1],"loss_changes":[2.659516E2,9.815872E1,2.4897815E2,5.7882904E1,2.0279934E1,2.2580177E2,1.20151276E2,4.2599823E1,2.0743101E1,8.771702E0,3.4875083E-1,2.159741E2,5.6087555E1,2.9891327E1,2.225823E1,4.0263763E1,9.5487404E-1,0E0,0E0,0E0,2.6039505E-1,0E0,0E0,0E0,2.1736691E2,5.0436996E1,0E0,3.226001E1,1.1152538E1,7.892685E-1,0E0,3.3891357E1,1.3274555E0,0E0,0E0,0E0,0E0,7.926993E1,2.5304376E2,3.518576E1,2.339428E0,1.8700363E1,6.1852264E0,0E0,0E0,0E0,0E0,0E0,0E0,0E0,0E0,0E0,0E0,0E0,0E0,0E0,0E0,0E0,0E0,0E0,0E0,0E0,0E0],"parents":[2147483647,0,0,1,1,2,2,3,3,4,4,5,5,6,6,7,7,8,8,9,9,10,10,11,11,12,12,13,13,14,14,15,15,16,16,20,20,24,24,25,25,27,27,28,28,29,29,31,31,32,32,37,37,38,38,39,39,40,40,41,41,42,42],"right_children":[2,4,6,8,10,12,14,16,18,20,22,24,26,28,30,32,34,-1,-1,-1,36,-1,-1,-1,38,40,-1,42,44,46,-1,48,50,-1,-1,-1,-1,52,54,56,58,60,62,-1,-1,-1,-1,-1,-1,-1,-1,-1,-1,-1,-1,-1,-1,-1,-1,-1,-1,-1,-1],"split_conditions":[3.0306978E-2,2.700269E-2,9.763035E-2,9.944829E-1,4.291823E-2,9.131667E-2,3.2700248E-2,4.6042833E-2,7.267475E-2,5.094027E-2,1.10445924E-1,9.973662E-1,7.5836986E-1,4.3183837E-2,8.977927E-2,2.8036233E-2,2.209127E-2,2.4499922E-1,-5.0191176E-1,1.7871642E-1,3.217313E-2,2.5237389E-2,2.5018108E-1,3.1453192E-1,5.0452765E-2,7.2023526E-2,1.4496294E0,-1.8575149E0,5.0153863E-2,4.0827848E-2,-4.0660098E-1,7.316169E-2,2.3708804E-2,-1.0119344E0,-2.624618E-1,-5.485336E-1,-3.3924365E-1,9.9098617E-1,3.6769494E-1,9.90595E-1,1.9114324E-1,1.2615396E-1,1.5816496E-1,-3.5526097E-1,2.4053663E-1,1.7927453E-2,2.9716396E-1,-4.083187E-1,2.630497E-1,-6.244857E-1,-1.3595666E-1,1.4934668E-1,-4.2350173E-1,2.5779334E-1,-6.760611E-2,2.5577715E-1,-4.3681076E-1,-8.211679E-2,-6.187189E-1,2.956579E-2,-1.1391094E0,-4.7137365E-1,-8.388943E-1],"split_indices":[926,940,2760,11695,3247,4033,5673,425,718,1059,3785,11697,3793,915,3341,4793,4469,0,0,0,1186,0,0,0,676,4469,0,11886,6942,2403,0,1417,2680,0,0,0,0,11878,1472,11704,2916,2549,5995,0,0,0,0,0,0,0,0,0,0,0,0,0,0,0,0,0,0,0,0],"split_type":[0,0,0,0,0,0,0,0,0,0,0,0,0,0,0,0,0,0,0,0,0,0,0,0,0,0,0,0,0,0,0,0,0,0,0,0,0,0,0,0,0,0,0,0,0,0,0,0,0,0,0,0,0,0,0,0,0,0,0,0,0,0,0],"sum_hessian":[5.3329673E3,7.5300037E2,4.579967E3,7.249944E2,2.8005981E1,4.4519575E3,1.2800931E2,7.09094E2,1.5900352E1,2.3484539E1,4.5214434E0,4.0373096E3,4.146479E2,1.0112153E2,2.6887772E1,7.067249E2,2.3691196E0,3.8122575E0,1.2088094E1,1.434888E0,2.204965E1,1.0000591E0,3.5213842E0,1.9761035E2,3.8396992E3,4.121808E2,2.4671233E0,9.1677826E1,9.443705E0,2.2720263E1,4.167509E0,7.018414E2,4.8835387E0,1.1883292E0,1.1807903E0,1.3654334E1,8.395317E0,7.9422314E2,3.045476E3,4.0565213E2,6.5286474E0,1.3093231E1,7.8584595E1,4.1243925E0,5.319312E0,1.0876954E0,2.1632566E1,5.9825225E0,6.958588E2,3.5649738E0,1.3185649E0,7.7279675E2,2.1426407E1,2.3189839E2,2.813578E3,3.99811E2,5.8411407E0,1.2087374E0,5.3199105E0,1.3085538E0,1.17846775E1,7.305056E1,5.534034E0],"tree_param":{"num_deleted":"0","num_feature":"11898","num_nodes":"63","size_leaf_vector":"1"}},{"base_weights":[1.2433712E-1,7.7539915E-1,5.123963E-2,-1.9756407E0,8.2430506E-1,3.0311838E-1,1.4101314E-4,1.20800305E-2,-6.757206E-1,-1.7094611E0,8.590751E-1,-9.191401E-2,6.0143226E-1,-1.2357752E-1,-5.6899875E-1,-2.0671961E0,8.797994E-1,7.798174E-1,-1.5667813E-1,6.714517E-1,-2.290045E0,-1.5094987E-1,-8.969531E-1,-1.4936979E0,8.9609903E-1,8.309195E-1,-1.2560503E0,3.0942E-1,-2.0933513E-1,7.1112335E-1,-2.1710923E0,1.9274268E-1,-2.779328E0,-5.904221E-1,-4.6776112E-2,2.7411652E-1,-3.4963596E-1,-3.3885938E-1,2.627143E-1,1.3788623E-1,-4.9461594E-1,7.8412294E-2,-1.0536762E-1,2.257976E-1,-5.696177E-1,-1.5554415E-1,-7.134761E-1,-1.1380641E0,-4.932086E-1],"categories":[],"categories_nodes":[],"categories_segments":[],"categories_sizes":[],"default_left":[0,0,0,0,0,0,1,0,0,0,0,0,1,0,0,0,0,1,0,1,0,0,0,1,1,0,0,0,0,1,0,0,0,0,0,0,0,0,0,0,0,0,0,0,0,0,0,0,0],"id":13,"left_children":[1,3,5,7,9,-1,11,-1,-1,13,15,17,19,-1,-1,21,23,25,27,29,31,-1,-1,33,35,37,39,-1,41,43,45,-1,47,-1,-1,-1,-1,-1,-1,-1,-1,-1,-1,-1,-1,-1,-1,-1,-1],"loss_changes":[2.3716345E2,6.9308716E1,2.1967732E2,5.1571503E0,4.5074127E1,0E0,2.356581E2,0E0,0E0,9.2744637E-1,3.1469543E1,2.0857216E2,1.15979614E2,0E0,0E0,3.8880367E0,2.0147675E1,2.762558E1,2.1528012E2,6.386743E1,2.1286858E1,0E0,0E0,2.0354881E0,1.863034E1,2.293045E1,5.240858E0,0E0,2.2000342E2,6.0595673E1,1.4557304E0,0E0,7.391327E0,0E0,0E0,0E0,0E0,0E0,0E0,0E0,0E0,0E0,0E0,0E0,0E0,0E0,0E0,0E0,0E0],"parents":[2147483647,0,0,1,1,2,2,3,3,4,4,6,6,9,9,10,10,11,11,12,12,15,15,16,16,17,17,18,18,19,19,20,20,23,23,24,24,25,25,26,26,28,28,29,29,30,30,32,32],"right_children":[2,4,6,8,10,-1,12,-1,-1,14,16,18,20,-1,-1,22,24,26,28,30,32,-1,-1,34,36,38,40,-1,42,44,46,-1,48,-1,-1,-1,-1,-1,-1,-1,-1,-1,-1,-1,-1,-1,-1,-1,-1],"split_conditions":[3.6500838E-2,7.314142E-2,9.9169946E-1,4.6728063E-2,1.4402704E-1,3.0311838E-1,8.3903864E-2,1.20800305E-2,-6.757206E-1,7.8273445E-1,8.278709E-2,2.00001E0,1.309144E-1,-1.2357752E-1,-5.6899875E-1,7.929883E-2,1.3162042E-1,3.1931814E-2,9.921933E-1,2.4399146E-2,7.032362E-2,-1.5094987E-1,-8.969531E-1,2.9356634E-2,3.7677094E-2,1.1116819E0,5.6814916E-2,3.0942E-1,2.00001E0,4.9449705E-2,2.00001E0,1.9274268E-1,-1.8575149E0,-5.904221E-1,-4.6776112E-2,2.7411652E-1,-3.4963596E-1,-3.3885938E-1,2.627143E-1,1.3788623E-1,-4.9461594E-1,7.8412294E-2,-1.0536762E-1,2.257976E-1,-5.696177E-1,-1.5554415E-1,-7.134761E-1,-1.1380641E0,-4.932086E-1],"split_indices":[5516,5732,11638,7638,5727,0,4153,0,0,1200,7448,11804,1725,0,0,4469,6568,567,9060,3822,2853,0,0,7095,5268,2417,1828,0,11707,342,11704,0,11886,0,0,0,0,0,0,0,0,0,0,0,0,0,0,0,0],"split_type":[0,0,0,0,0,0,0,0,0,0,0,0,0,0,0,0,0,0,0,0,0,0,0,0,0,0,0,0,0,0,0,0,0,0,0,0,0,0,0,0,0,0,0,0,0,0,0,0,0],"sum_hessian":[4.983203E3,5.0204044E2,4.4811626E3,8.080878E0,4.9395956E2,2.257076E2,4.255455E3,1.0786421E0,7.002236E0,6.0346932E0,4.8792487E2,3.6911963E3,5.642586E2,1.1644006E0,4.8702927E0,2.7368295E0,4.8518802E2,2.5450414E2,3.4366921E3,5.5166736E2,1.2591275E1,1.5888442E0,1.1479853E0,2.6910148E0,4.82497E2,2.4884964E2,5.654488E0,1.4506497E2,3.2916272E3,5.4481354E2,6.8538084E0,1.7556546E0,1.0835621E1,1.6387593E0,1.0522555E0,4.7895953E2,3.5374837E0,5.0180554E0,2.4383159E2,1.021369E0,4.633119E0,7.622113E2,2.5294158E3,5.3697925E2,7.834317E0,1.1536278E0,5.7001805E0,4.48632E0,6.349301E0],"tree_param":{"num_deleted":"0","num_feature":"11898","num_nodes":"49","size_leaf_vector":"1"}},{"base_weights":[1.02198735E-1,8.739229E-1,4.686794E-2,9.0879613E-1,-8.8650125E-1,7.485831E-2,-1.5079287E0,9.291582E-1,-4.9430797E-1,2.740071E-1,-9.499286E-1,1.2968749E-1,-6.975306E-1,6.129393E-1,-1.6991417E0,9.4630235E-1,-1.0311447E0,-1.6525257E-1,2.2414593E-1,4.868676E-1,-4.7590514E-3,5.832145E-1,-1.0133058E0,-3.3975273E-2,2.434678E-1,3.6404374E-1,-1.8881996E0,9.58597E-1,-3.4330046E-1,-1.6815968E-2,-4.4270885E-1,5.424229E-1,-1.1107429E0,5.0179847E-2,-1.2184262E0,-4.0088823E-1,8.103964E-1,1.11823976E-1,-1.4367367E0,2.493805E-1,-2.9872698E-1,1.770138E-1,-1.95239E0,-2.8980505E-1,2.9083782E-1,1.7298974E-1,-4.3567312E-1,-4.685954E-1,2.167231E-1,2.908582E-2,-4.2503136E-1,2.2715522E-1,-4.8335245E-1,-3.9294592E-1,2.7415562E-1,1.3035694E-1,-4.967904E-1,1.2904455E-1,-4.5890403E-1,-8.375626E-1,-4.892092E-1],"categories":[],"categories_nodes":[],"categories_segments":[],"categories_sizes":[],"default_left":[0,1,1,1,1,1,0,1,0,1,0,0,0,0,0,1,0,0,0,1,1,0,0,0,0,0,0,0,0,0,0,1,1,1,0,0,0,0,0,0,0,0,0,0,0,0,0,0,0,0,0,0,0,0,0,0,0,0,0,0,0],"id":14,"left_children":[1,3,5,7,9,11,13,15,-1,17,-1,19,21,23,25,27,29,-1,-1,31,33,35,37,-1,-1,39,41,43,-1,-1,-1,45,47,49,51,-1,53,55,57,-1,-1,-1,59,-1,-1,-1,-1,-1,-1,-1,-1,-1,-1,-1,-1,-1,-1,-1,-1,-1,-1],"loss_changes":[2.004401E2,2.0085724E1,1.9081653E2,1.7587082E1,1.8347748E1,1.8242624E2,3.2487015E1,1.1281433E1,0E0,2.4794016E0,0E0,1.9309601E2,1.16067856E2,1.1228533E0,2.8534927E1,8.92395E0,1.2771506E0,0E0,0E0,9.820157E1,1.9491531E2,2.5987268E1,1.0946057E2,0E0,0E0,5.1678305E0,1.1581512E1,7.2766724E0,0E0,0E0,0E0,7.3397095E1,3.1967754E1,1.9203159E2,9.9447876E1,0E0,1.2534767E1,3.703522E1,2.9593628E1,0E0,0E0,0E0,1.2768234E1,0E0,0E0,0E0,0E0,0E0,0E0,0E0,0E0,0E0,0E0,0E0,0E0,0E0,0E0,0E0,0E0,0E0,0E0],"parents":[2147483647,0,0,1,1,2,2,3,3,4,4,5,5,6,6,7,7,9,9,11,11,12,12,13,13,14,14,15,15,16,16,19,19,20,20,21,21,22,22,25,25,26,26,27,27,31,31,32,32,33,33,34,34,36,36,37,37,38,38,42,42],"right_children":[2,4,6,8,10,12,14,16,-1,18,-1,20,22,24,26,28,30,-1,-1,32,34,36,38,-1,-1,40,42,44,-1,-1,-1,46,48,50,52,-1,54,56,58,-1,-1,-1,60,-1,-1,-1,-1,-1,-1,-1,-1,-1,-1,-1,-1,-1,-1,-1,-1,-1,-1],"split_conditions":[1.5808472E-2,2.4448132E-2,5.078778E-2,2.7562E-2,4.2456124E-2,2.9800704E-2,2.0359589E-1,8.194546E-2,-4.9430797E-1,3.5261232E-2,-9.499286E-1,6.325907E-2,1.1871722E-1,6.150935E-2,2.00001E0,3.8464714E-2,2.00001E0,-1.6525257E-1,2.2414593E-1,9.944829E-1,6.7904815E-2,-9.7932094E-1,1.2266889E-1,-3.3975273E-2,2.434678E-1,-1.8575149E0,9.071795E-2,4.7619294E-2,-3.4330046E-1,-1.6815968E-2,-4.4270885E-1,3.9181363E-2,1.2803388E-1,6.842634E-2,1.3198264E-1,-4.0088823E-1,1.6345066E-1,1.3147084E-1,1.1741712E-1,2.493805E-1,-2.9872698E-1,1.770138E-1,-1.8575149E0,-2.8980505E-1,2.9083782E-1,1.7298974E-1,-4.3567312E-1,-4.685954E-1,2.167231E-1,2.908582E-2,-4.2503136E-1,2.2715522E-1,-4.8335245E-1,-3.9294592E-1,2.7415562E-1,1.3035694E-1,-4.967904E-1,1.2904455E-1,-4.5890403E-1,-8.375626E-1,-4.892092E-1],"split_indices":[4933,1143,915,3466,7981,2075,1768,6625,0,1185,0,926,7921,4469,11848,3857,11638,0,0,11695,2974,11887,3338,0,0,11886,66,2609,0,0,0,2327,6254,5929,3605,0,6069,676,318,0,0,0,11886,0,0,0,0,0,0,0,0,0,0,0,0,0,0,0,0,0,0],"split_type":[0,0,0,0,0,0,0,0,0,0,0,0,0,0,0,0,0,0,0,0,0,0,0,0,0,0,0,0,0,0,0,0,0,0,0,0,0,0,0,0,0,0,0,0,0,0,0,0,0,0,0,0,0,0,0,0,0,0,0,0,0],"sum_hessian":[4.6940947E3,3.130498E2,4.381045E3,3.0744324E2,5.6065574E0,4.3045044E3,7.6540375E1,3.056454E2,1.797874E0,4.2984276E0,1.3081298E0,4.019973E3,2.845317E2,6.1476197E0,7.039275E1,3.0350827E2,2.1371086E0,1.5070074E0,2.7914202E0,1.0986366E3,2.9213362E3,5.61099E1,2.2842181E2,1.4126239E0,4.7349954E0,5.8312144E0,6.456154E1,3.0227216E2,1.2361244E0,1.0218481E0,1.1152606E0,1.0623547E3,3.628185E1,2.7957405E3,1.2559573E2,5.4213867E0,5.0688515E1,6.2659775E1,1.6576204E2,4.6292853E0,1.2019291E0,1.4231918E0,6.3138348E1,1.202927E0,3.010692E2,1.045141E3,1.7213768E1,2.9233719E1,7.0481296E0,2.7102593E3,8.548115E1,2.0673859E1,1.04921875E2,1.8157572E0,4.887276E1,5.3625065E1,9.034713E0,7.6890755E0,1.5807297E2,1.5364539E1,4.7773808E1],"tree_param":{"num_deleted":"0","num_feature":"11898","num_nodes":"61","size_leaf_vector":"1"}},{"base_weights":[7.7942155E-2,3.04326E-1,3.473588E-2,8.0539674E-1,-2.0454375E-2,-8.479089E-1,8.6518407E-1,1.1226998E-2,-1.4102508E0,1.8582138E-1,-4.5353803E-1,8.901955E-1,-1.3730692E0,5.1491607E-2,-1.0343171E0,7.4998903E-1,-1.5709094E0,-4.6400467E-1,9.0646064E-1,7.024737E-2,-6.459033E-1,8.5435435E-2,-1.2322367E0,1.0017406E0,-1.4950402E0,2.4938883E-1,4.7101263E-2,-5.8904624E-1,-1.897886E0,2.770491E-1,-3.4374562E-1,2.218657E-1,6.8729185E-3,2.6678348E-1,-4.3902692E-1,6.381934E-3,3.1235182E-1,1.1952058E-1,-4.9578813E-1,1.1948293E-1,-3.7678853E-1,-5.900242E-1,1.7381856E-1],"categories":[],"categories_nodes":[],"categories_segments":[],"categories_sizes":[],"default_left":[0,0,0,0,1,0,1,1,0,0,0,0,0,1,0,1,0,0,1,0,0,0,0,1,0,0,0,0,1,0,0,0,0,0,0,0,0,0,0,0,0,0,0],"id":15,"left_children":[1,-1,3,5,7,9,11,13,15,-1,-1,17,19,21,23,25,27,-1,29,-1,-1,31,33,35,37,-1,-1,39,41,-1,-1,-1,-1,-1,-1,-1,-1,-1,-1,-1,-1,-1,-1],"loss_changes":[1.7710678E2,0E0,1.7805818E2,2.8387589E1,1.7205258E2,1.0939667E1,1.636525E1,1.6091612E2,3.1403778E1,0E0,0E0,1.2029037E1,4.744376E0,1.604761E2,1.3446207E2,1.9277906E-1,2.501033E1,0E0,1.0392227E1,0E0,0E0,1.4666763E2,4.7833206E1,1.012228E0,3.526764E1,0E0,0E0,1.484264E1,1.1477707E1,0E0,0E0,0E0,0E0,0E0,0E0,0E0,0E0,0E0,0E0,0E0,0E0,0E0,0E0],"parents":[2147483647,0,0,2,2,3,3,4,4,5,5,6,6,7,7,8,8,11,11,12,12,13,13,14,14,15,15,16,16,18,18,21,21,22,22,23,23,24,24,27,27,28,28],"right_children":[2,-1,4,6,8,10,12,14,16,-1,-1,18,20,22,24,26,28,-1,30,-1,-1,32,34,36,38,-1,-1,40,42,-1,-1,-1,-1,-1,-1,-1,-1,-1,-1,-1,-1,-1,-1],"split_conditions":[9.946623E-1,3.04326E-1,2.5988933E-2,1.5602964E-1,7.171316E-2,8.68345E-2,3.6914367E-2,1.9395804E-2,2.3843927E-2,1.8582138E-1,-4.5353803E-1,6.0761403E-2,4.365141E-2,3.361307E-2,1.2959063E-1,1.2000853E-1,1.3564424E-1,-4.6400467E-1,1.0580042E-1,7.024737E-2,-6.459033E-1,2.6352242E-1,2.00001E0,1.2627782E-2,1.03951216E-1,2.4938883E-1,4.7101263E-2,2.2633418E-1,1.2048046E-1,2.770491E-1,-3.4374562E-1,2.218657E-1,6.8729185E-3,2.6678348E-1,-4.3902692E-1,6.381934E-3,3.1235182E-1,1.1952058E-1,-4.9578813E-1,1.1948293E-1,-3.7678853E-1,-5.900242E-1,1.7381856E-1],"split_indices":[7821,0,3838,1795,6112,2720,3460,3881,4549,0,0,3965,1186,1038,4510,6016,6254,0,5489,0,0,2711,9334,2620,1763,0,0,926,3255,0,0,0,0,0,0,0,0,0,0,0,0,0,0],"split_type":[0,0,0,0,0,0,0,0,0,0,0,0,0,0,0,0,0,0,0,0,0,0,0,0,0,0,0,0,0,0,0,0,0,0,0,0,0,0,0,0,0,0,0],"sum_hessian":[4.3770146E3,1.9204488E2,4.1849697E3,2.7876617E2,3.9062039E3,9.268947E0,2.6949722E2,3.8201135E3,8.609021E1,2.9082189E0,6.3607283E0,2.6711462E2,2.382597E0,3.6793694E3,1.4074423E2,5.705462E0,8.038475E1,1.1472008E0,2.6596744E2,1.0070802E0,1.3755168E0,3.5854966E3,9.387281E1,2.5754404E1,1.1498984E2,4.664065E0,1.041397E0,2.0781738E1,5.9603012E1,2.6432324E2,1.6441768E0,3.1188303E2,3.2736135E3,8.944616E0,8.492819E1,1.0552571E0,2.4699146E1,8.717609E0,1.06272224E2,8.540669E0,1.2241068E1,5.8191547E1,1.4114676E0],"tree_param":{"num_deleted":"0","num_feature":"11898","num_nodes":"43","size_leaf_vector":"1"}},{"base_weights":[6.0397208E-2,8.8894284E-1,1.3520333E-2,9.1165054E-1,-5.9570855E-1,6.3249093E-1,-5.1905505E-2,9.317985E-1,-3.2596815E-1,8.8764787E-1,-1.5546937E-2,-1.604691E-2,-1.4073938E0,9.5876956E-1,-1.01766E-1,9.0406376E-1,-4.7793356E-1,8.601909E-1,-1.4175427E0,1.6126823E-2,-1.4884466E0,8.3044237E-1,-1.6728317E0,9.71387E-1,-1.7293367E-1,2.422841E-1,-5.7864904E-1,9.185081E-1,-4.2555076E-1,1.0122613E0,-6.300822E-1,2.6900062E-1,-1.9303412E0,7.356704E-1,-4.415087E-2,-1.5742985E0,2.173076E-1,2.7152008E-1,2.1063156E-2,5.889582E-1,-1.8414788E0,-1.9412482E-1,2.9464152E-1,2.786641E-1,-2.740462E-1,3.2286102E-1,-2.2738546E-1,-3.3590373E-1,-6.7197144E-1,2.4287468E-1,-3.6139315E-1,2.4154805E-1,-3.187028E-2,-7.5900954E-1,-4.1360408E-1,2.4757563E-1,-9.925639E-2,2.2883332E-1,-5.9620893E-1],"categories":[],"categories_nodes":[],"categories_segments":[],"categories_sizes":[],"default_left":[0,1,0,1,0,0,1,1,0,1,0,1,0,1,0,1,0,1,0,0,1,1,0,0,0,0,0,1,0,1,0,0,0,0,0,0,0,0,0,1,0,0,0,0,0,0,0,0,0,0,0,0,0,0,0,0,0,0,0],"id":16,"left_children":[1,3,5,7,-1,9,11,13,-1,15,17,19,21,23,25,27,-1,29,31,33,35,37,39,41,-1,-1,-1,43,-1,45,-1,-1,47,49,51,53,-1,-1,-1,55,57,-1,-1,-1,-1,-1,-1,-1,-1,-1,-1,-1,-1,-1,-1,-1,-1,-1,-1],"loss_changes":[1.6138953E2,1.6334686E1,1.5935007E2,9.927963E0,0E0,6.2212357E1,1.7296208E2,6.2240906E0,0E0,1.2432083E1,1.3289862E2,1.6432216E2,5.5866135E1,4.710739E0,1.2346294E1,1.0319687E1,0E0,3.2125916E1,5.1113815E1,1.4728346E2,1.5231613E1,5.260668E-1,3.2484314E1,4.3402557E0,0E0,0E0,0E0,5.935669E0,0E0,8.066292E0,0E0,0E0,6.1201477E0,3.8618378E1,1.6531192E2,9.920502E0,0E0,0E0,0E0,1.6792021E0,3.0712189E1,0E0,0E0,0E0,0E0,0E0,0E0,0E0,0E0,0E0,0E0,0E0,0E0,0E0,0E0,0E0,0E0,0E0,0E0],"parents":[2147483647,0,0,1,1,2,2,3,3,5,5,6,6,7,7,9,9,10,10,11,11,12,12,13,13,14,14,15,15,17,17,18,18,19,19,20,20,21,21,22,22,23,23,27,27,29,29,32,32,33,33,34,34,35,35,39,39,40,40],"right_children":[2,4,6,8,-1,10,12,14,-1,16,18,20,22,24,26,28,-1,30,32,34,36,38,40,42,-1,-1,-1,44,-1,46,-1,-1,48,50,52,54,-1,-1,-1,56,58,-1,-1,-1,-1,-1,-1,-1,-1,-1,-1,-1,-1,-1,-1,-1,-1,-1,-1],"split_conditions":[1.9886943E-2,9.9098617E-1,2.00001E0,3.0735021E-2,-5.9570855E-1,-1.8575149E0,6.5549396E-2,2.6920939E-2,-3.2596815E-1,6.450833E-2,1.2448305E-1,4.1961838E-2,4.866328E-2,2.649661E-2,1.0412486E-1,6.819616E-2,-4.7793356E-1,9.944829E-1,9.578686E-1,2.00001E0,8.242198E-2,2.5390798E-2,2.00001E0,1.4209944E-1,-1.7293367E-1,2.422841E-1,-5.7864904E-1,3.721071E-2,-4.2555076E-1,3.7495762E-2,-6.300822E-1,2.6900062E-1,8.9589E-2,2.1736139E-1,3.6769494E-1,-1.8575149E0,2.173076E-1,2.7152008E-1,2.1063156E-2,1.8962583E-2,2.402089E-1,-1.9412482E-1,2.9464152E-1,2.786641E-1,-2.740462E-1,3.2286102E-1,-2.2738546E-1,-3.3590373E-1,-6.7197144E-1,2.4287468E-1,-3.6139315E-1,2.4154805E-1,-3.187028E-2,-7.5900954E-1,-4.1360408E-1,2.4757563E-1,-9.925639E-2,2.2883332E-1,-5.9620893E-1],"split_indices":[3832,11878,11848,3886,0,11886,2273,4742,0,678,6473,2689,773,85,7262,5966,0,11695,11848,10991,4222,838,10445,6697,0,0,0,348,0,1272,0,0,3088,6016,1472,11886,0,0,0,2717,835,0,0,0,0,0,0,0,0,0,0,0,0,0,0,0,0,0,0],"split_type":[0,0,0,0,0,0,0,0,0,0,0,0,0,0,0,0,0,0,0,0,0,0,0,0,0,0,0,0,0,0,0,0,0,0,0,0,0,0,0,0,0,0,0,0,0,0,0,0,0,0,0,0,0,0,0,0,0,0,0],"sum_hessian":[4.1545894E3,2.2150685E2,3.9330823E3,2.2044832E2,1.0585258E0,3.7515994E2,3.5579224E3,2.1877608E2,1.6722418E0,2.6891016E2,1.0624981E2,3.4672112E3,9.071107E1,2.132828E2,5.493276E0,2.6777377E2,1.1363653E0,6.563699E1,4.0612816E1,3.3940364E3,7.31748E1,9.392957E0,8.131811E1,2.1190846E2,1.3743478E0,4.040287E0,1.4529892E0,2.6671954E2,1.0542318E0,6.3056065E1,2.5809295E0,7.2310753E0,3.338174E1,2.614821E2,3.1325544E3,7.071958E1,2.4552133E0,8.379872E0,1.0130843E0,5.4696965E0,7.584841E1,1.0078187E0,2.1090063E2,2.6570816E2,1.0113931E0,6.123619E1,1.8198736E0,1.0500567E1,2.2881174E1,2.5244841E2,9.0336895E0,2.1257155E2,2.919983E3,9.987942E0,6.073164E1,4.433551E0,1.0361458E0,3.7991507E0,7.204926E1],"tree_param":{"num_deleted":"0","num_feature":"11898","num_nodes":"59","size_leaf_vector":"1"}},{"base_weights":[4.9366325E-2,8.240775E-1,-1.7301153E-3,8.9366394E-1,-6.799723E-1,6.320618E-1,-6.769606E-2,-6.8537265E-1,9.179353E-1,2.2326362E-1,-3.7137014E-1,6.913812E-1,-1.7999605E0,-1.13303274E-1,9.487164E-1,9.3852645E-1,-4.81088E-1,7.3996425E-1,-4.6316406E-1,1.7964287E-1,-2.3805454E0,5.692828E-1,-1.8228145E-1,-4.3574852E-1,9.800609E-1,-4.3238562E-1,9.6010023E-1,7.7554363E-1,-1.9166503E0,-2.1641932E-1,-3.0570555E0,6.301036E-1,-1.0261334E0,9.331763E-1,-2.3021257E-1,9.94971E-1,-1.4004141E-1,2.9467383E-1,-8.0506265E-2,2.4339074E-1,-4.3438578E-1,-2.2392027E-1,-7.377004E-1,-2.344597E-1,-1.075744E0,1.974742E-1,-6.0892576E-1,1.685845E-1,-4.0502295E-1,2.980238E-1,-3.5853195E-1,-3.0577123E-2,-2.0474136E-1,3.0183837E-1,1.15070894E-1],"categories":[],"categories_nodes":[],"categories_segments":[],"categories_sizes":[],"default_left":[0,1,0,0,0,1,1,0,1,0,0,1,0,0,1,0,0,1,0,0,0,1,0,0,1,0,1,1,0,0,0,1,0,1,1,0,0,0,0,0,0,0,0,0,0,0,0,0,0,0,0,0,0,0,0],"id":17,"left_children":[1,3,5,7,9,11,13,-1,15,-1,-1,17,19,21,23,25,-1,27,-1,-1,29,31,33,-1,35,-1,37,39,41,-1,43,45,47,49,51,53,-1,-1,-1,-1,-1,-1,-1,-1,-1,-1,-1,-1,-1,-1,-1,-1,-1,-1,-1],"loss_changes":[1.5621225E2,2.6163101E1,1.548621E2,2.0132996E1,9.95199E0,5.1619537E1,1.5562456E2,0E0,1.3589783E1,0E0,0E0,3.823758E1,1.339094E1,1.5132123E2,1.2274994E1,1.3269012E1,0E0,3.3150833E1,0E0,0E0,5.784504E0,2.9272629E1,1.562087E2,0E0,3.547577E0,0E0,6.521179E0,2.7514984E1,1.157362E0,0E0,2.9100037E0,2.2655342E1,6.5276117E0,1.66231E1,1.6228531E2,5.81192E-1,0E0,0E0,0E0,0E0,0E0,0E0,0E0,0E0,0E0,0E0,0E0,0E0,0E0,0E0,0E0,0E0,0E0,0E0,0E0],"parents":[2147483647,0,0,1,1,2,2,3,3,4,4,5,5,6,6,8,8,11,11,12,12,13,13,14,14,15,15,17,17,20,20,21,21,22,22,24,24,26,26,27,27,28,28,30,30,31,31,32,32,33,33,34,34,35,35],"right_children":[2,4,6,8,10,12,14,-1,16,-1,-1,18,20,22,24,26,-1,28,-1,-1,30,32,34,-1,36,-1,38,40,42,-1,44,46,48,50,52,54,-1,-1,-1,-1,-1,-1,-1,-1,-1,-1,-1,-1,-1,-1,-1,-1,-1,-1,-1],"split_conditions":[3.4240905E-2,3.150866E-2,1.4671175E-1,1.4566134E-1,5.956601E-2,3.1169474E-2,2.6642013E-1,-6.8537265E-1,5.0751172E-2,2.2326362E-1,-3.7137014E-1,9.9098617E-1,7.6844595E-2,3.3803385E-2,4.864687E-2,1.9943155E-1,-4.81088E-1,6.081104E-2,-4.6316406E-1,1.7964287E-1,1.4664216E-1,2.344281E-2,7.6519525E-1,-4.3574852E-1,5.2017115E-2,-4.3238562E-1,4.0376313E-2,2.3730362E-2,2.3413068E-1,-2.1641932E-1,9.598746E-2,3.4544718E-2,5.1217835E-2,4.4305466E-2,4.85904E-2,1.354449E-1,-1.4004141E-1,2.9467383E-1,-8.0506265E-2,2.4339074E-1,-4.3438578E-1,-2.2392027E-1,-7.377004E-1,-2.344597E-1,-1.075744E0,1.974742E-1,-6.0892576E-1,1.685845E-1,-4.0502295E-1,2.980238E-1,-3.5853195E-1,-3.0577123E-2,-2.0474136E-1,3.0183837E-1,1.15070894E-1],"split_indices":[7293,5309,3231,7448,2246,1624,6268,0,5955,0,0,11878,4654,4399,4933,1585,0,2149,0,0,2072,2071,7434,0,3939,0,7309,1621,1185,0,92,11,751,676,7953,4033,0,0,0,0,0,0,0,0,0,0,0,0,0,0,0,0,0,0,0],"split_type":[0,0,0,0,0,0,0,0,0,0,0,0,0,0,0,0,0,0,0,0,0,0,0,0,0,0,0,0,0,0,0,0,0,0,0,0,0,0,0,0,0,0,0,0,0,0,0,0,0,0,0,0,0,0,0],"sum_hessian":[3.9452144E3,2.4317218E2,3.7020422E3,2.3280695E2,1.0365235E1,3.481813E2,3.3538608E3,1.0586195E0,2.3174832E2,2.82364E0,7.541595E0,3.4058972E2,7.5916085E0,3.2106836E3,1.4317734E2,2.304939E2,1.2544183E0,3.3399927E2,6.5904555E0,1.4732547E0,6.118354E0,2.9400922E2,2.9166743E3,1.2606769E0,1.4191666E2,1.4795232E0,2.2901437E2,3.302839E2,3.715341E0,2.3706536E0,3.7477002E0,2.8379535E2,1.0213847E1,1.1940481E2,2.7972695E3,1.4077826E2,1.1384064E0,2.251558E2,3.8585682E0,3.2568134E2,4.6025662E0,1.9290961E0,1.786245E0,1.1738895E0,2.5738108E0,2.8156863E2,2.226727E0,1.6059932E0,8.607854E0,1.16636894E2,2.7679117E0,2.1800862E3,6.171834E2,1.3762134E2,3.1569185E0],"tree_param":{"num_deleted":"0","num_feature":"11898","num_nodes":"55","size_leaf_vector":"1"}},{"base_weights":[4.3205664E-2,3.0432934E-1,3.7056531E-3,8.145241E-1,-4.291649E-2,-9.725389E-1,8.835728E-1,8.350167E-1,-8.7266125E-2,-1.4198909E0,1.7896052E-1,9.082642E-1,-3.9065167E-1,8.840481E-1,-6.482052E-1,5.2156144E-1,-1.5145555E-1,-4.6597654E-1,-1.314838E-1,-5.5032134E-1,9.323154E-1,9.12646E-1,-3.994634E-1,1.7796248E-1,-4.059115E-1,5.9087366E-1,-1.5489959E0,-2.1555163E-1,6.35512E-1,-4.8943385E-1,1.823942E-1,-1.3204712E-1,2.8600815E-1,2.7950856E-1,-2.29403E-1,1.9130702E-1,-6.803333E-1,1.5493955E-1,-6.4197433E-1,1.661277E-1,-8.548007E-2,2.1360405E-1,-5.372825E-1],"categories":[],"categories_nodes":[],"categories_segments":[],"categories_sizes":[],"default_left":[0,0,0,0,0,1,1,1,0,1,0,0,0,1,0,1,1,0,0,1,0,1,0,0,0,1,0,0,1,0,0,0,0,0,0,0,0,0,0,0,0,0,0],"id":18,"left_children":[1,-1,3,5,7,9,11,13,15,17,-1,19,-1,21,23,25,27,-1,-1,29,31,33,-1,-1,-1,35,37,39,41,-1,-1,-1,-1,-1,-1,-1,-1,-1,-1,-1,-1,-1,-1],"loss_changes":[1.4529448E2,0E0,1.3764989E2,2.529042E1,1.3414563E2,6.3511744E0,1.1498947E1,1.2621864E1,1.2821295E2,1.567688E-1,0E0,7.1645203E0,0E0,1.14036255E1,5.946313E0,4.5826324E1,1.4978688E2,0E0,0E0,5.6310005E0,5.8180237E0,5.803711E0,0E0,0E0,0E0,4.2067307E1,1.381374E1,1.4662796E2,4.279844E1,0E0,0E0,0E0,0E0,0E0,0E0,0E0,0E0,0E0,0E0,0E0,0E0,0E0,0E0],"parents":[2147483647,0,0,2,2,3,3,4,4,5,5,6,6,7,7,8,8,9,9,11,11,13,13,14,14,15,15,16,16,19,19,20,20,21,21,25,25,26,26,27,27,28,28],"right_children":[2,-1,4,6,8,10,12,14,16,18,-1,20,-1,22,24,26,28,-1,-1,30,32,34,-1,-1,-1,36,38,40,42,-1,-1,-1,-1,-1,-1,-1,-1,-1,-1,-1,-1,-1,-1],"split_conditions":[9.94337E-1,3.0432934E-1,2.0636573E-2,1.1249645E-1,2.2253696E-2,8.859073E-2,3.9153587E-2,1.704473E-2,9.580286E-2,1.6913626E-1,1.7896052E-1,4.0668872E-1,-3.9065167E-1,2.3705982E-2,7.566371E-2,3.4278736E-2,9.053051E-2,-4.6597654E-1,-1.314838E-1,6.576543E-2,8.6985864E-2,5.407631E-2,-3.994634E-1,1.7796248E-1,-4.059115E-1,1.7135748E-1,4.0229365E-2,1.9004233E-1,5.2088697E-2,-4.8943385E-1,1.823942E-1,-1.3204712E-1,2.8600815E-1,2.7950856E-1,-2.29403E-1,1.9130702E-1,-6.803333E-1,1.5493955E-1,-6.4197433E-1,1.661277E-1,-8.548007E-2,2.1360405E-1,-5.372825E-1],"split_indices":[11690,0,1725,1795,2734,346,3680,1201,5699,6535,0,3538,0,3557,3848,3338,4033,0,0,2735,6101,3721,0,0,0,5041,1737,2711,2481,0,0,0,0,0,0,0,0,0,0,0,0,0,0],"split_type":[0,0,0,0,0,0,0,0,0,0,0,0,0,0,0,0,0,0,0,0,0,0,0,0,0,0,0,0,0,0,0,0,0,0,0,0,0,0,0,0,0,0,0],"sum_hessian":[3.7864167E3,1.470118E2,3.6394048E3,1.9699202E2,3.4424128E3,6.841484E0,1.9015054E2,1.6467734E2,3.2777356E3,5.397658E0,1.4438262E0,1.8860442E2,1.5461205E0,1.5979877E2,4.878561E0,3.1193658E2,2.965799E3,4.239339E0,1.1583191E0,2.7045658E0,1.8589986E2,1.5834303E2,1.4557409E0,1.8241246E0,3.0544362E0,3.0252417E2,9.412412E0,2.7431074E3,2.2269153E2,1.1876075E0,1.5169584E0,2.5067317E0,1.8339313E2,1.5700449E2,1.3385477E0,2.9841394E2,4.1102257E0,2.1218436E0,7.290569E0,2.2634961E2,2.5167578E3,2.1657004E2,6.121481E0],"tree_param":{"num_deleted":"0","num_feature":"11898","num_nodes":"43","size_leaf_vector":"1"}},{"base_weights":[3.8920693E-2,3.001566E-1,2.935409E-3,2.696228E-2,-1.430806E0,4.3961987E-2,-2.0514212E0,4.104646E-1,-1.5975595E0,-1.8932579E0,6.1325196E-2,2.2036856E-1,-2.3793318E0,2.3828435E-1,-2.0231201E-1,-1.6468996E0,2.2088189E-2,-2.8895233E0,-1.4623747E0,1.2013451E-1,-5.0428486E-1,-3.8956895E0,-1.9243815E0,-2.2858357E0,-4.4125262E-1,-9.9370414E-1,-3.168135E-1,-5.883067E-1,-3.7446094E-1,4.2901076E-2,-4.2327166E-1,2.4188069E-1,-2.829502E-1,-2.5346845E-1,-1.3645848E0,-1.181107E0,-4.775045E-1,-2.1305579E-1,-7.713447E-1],"categories":[],"categories_nodes":[],"categories_segments":[],"categories_sizes":[],"default_left":[0,0,1,1,0,0,0,0,1,0,1,0,0,0,0,0,0,1,0,1,0,0,0,0,0,0,0,0,0,0,0,0,0,0,0,0,0,0,0],"id":19,"left_children":[1,-1,3,5,7,9,11,13,15,17,19,-1,21,-1,-1,23,-1,25,27,29,31,33,35,37,-1,-1,-1,-1,-1,-1,-1,-1,-1,-1,-1,-1,-1,-1,-1],"loss_changes":[1.2630205E2,0E0,1.21276024E2,1.2242254E2,1.8471672E1,1.1566589E2,2.7428665E1,2.8732738E0,4.525345E0,8.887871E0,1.1334541E2,0E0,1.0016632E1,0E0,0E0,2.4785767E0,0E0,2.8576736E0,4.5902252E-2,1.0824509E2,1.8536472E2,5.882942E0,8.13269E0,2.405037E0,0E0,0E0,0E0,0E0,0E0,0E0,0E0,0E0,0E0,0E0,0E0,0E0,0E0,0E0,0E0],"parents":[2147483647,0,0,2,2,3,3,4,4,5,5,6,6,7,7,8,8,9,9,10,10,12,12,15,15,17,17,18,18,19,19,20,20,21,21,22,22,23,23],"right_children":[2,-1,4,6,8,10,12,14,16,18,20,-1,22,-1,-1,24,-1,26,28,30,32,34,36,38,-1,-1,-1,-1,-1,-1,-1,-1,-1,-1,-1,-1,-1,-1,-1],"split_conditions":[9.9169946E-1,3.001566E-1,5.0759714E-2,5.654419E-2,1.7847995E-1,2.00001E0,6.515674E-2,6.877581E-2,1.1664786E-1,-1.8575149E0,3.6921933E-2,2.2036856E-1,-1.8575149E0,2.3828435E-1,-2.0231201E-1,-1.8575149E0,2.2088189E-2,5.4616436E-2,7.146394E-2,3.2026004E-2,1.8215553E-1,1.5440294E-1,2.8058046E-1,1.421044E-1,-4.4125262E-1,-9.9370414E-1,-3.168135E-1,-5.883067E-1,-3.7446094E-1,4.2901076E-2,-4.2327166E-1,2.4188069E-1,-2.829502E-1,-2.5346845E-1,-1.3645848E0,-1.181107E0,-4.775045E-1,-2.1305579E-1,-7.713447E-1],"split_indices":[11638,0,1143,7781,2924,8683,1,676,1613,11886,3896,0,11886,0,0,11886,0,5724,7971,2524,6684,6267,6750,2732,0,0,0,0,0,0,0,0,0,0,0,0,0,0,0],"split_type":[0,0,0,0,0,0,0,0,0,0,0,0,0,0,0,0,0,0,0,0,0,0,0,0,0,0,0,0,0,0,0,0,0,0,0,0,0,0,0],"sum_hessian":[3.6490642E3,1.3066342E2,3.518401E3,3.4613757E3,5.70251E1,3.4342646E3,2.7111012E1,4.6141963E0,5.2410904E1,2.954797E1,3.4047168E3,2.7243502E0,2.4386662E1,3.6061661E0,1.0080303E0,5.0922012E1,1.4888916E0,7.1983285E0,2.2349642E1,3.0847659E3,3.1995096E2,3.8826902E0,2.0503971E1,8.411637E0,4.2510376E1,5.1939464E0,2.0043824E0,4.2644873E0,1.8085154E1,3.0402603E3,4.4505615E1,8.005634E1,2.3989462E2,1.0888867E0,2.7938035E0,1.3718024E0,1.9132168E1,1.824566E0,6.587072E0],"tree_param":{"num_deleted":"0","num_feature":"11898","num_nodes":"39","size_leaf_vector":"1"}},{"base_weights":[2.7577199E-2,3.0237138E-1,-6.8332334E-3,1.9502997E-2,-1.4425422E0,2.853422E-1,-1.1115092E-1,2.3738645E-1,-1.6252131E0,3.3708438E-1,-1.7234744E0,-4.910129E-2,-1.3372681E0,5.122263E-1,-1.7432684E0,3.733461E-1,-1.5020137E0,-2.117664E0,5.706794E-1,3.693521E-1,-2.1631715E-1,-1.6222763E-1,-1.5965836E0,2.3267347E-2,1.9356973E-1,-3.0959866E0,-4.4423002E-1,1.2714298E-1,-2.766737E-1,1.637285E-1,-4.956029E-1,1.0260816E-1,-7.187435E-1,2.2508262E-1,-1.8357769E-2,1.2861168E-1,-7.360171E-1,1.3888843E-1,-1.177978E-1,1.1530609E-1,-4.077676E-1,-7.4610674E-1,-3.334161E-1,-2.37948E-1,-1.0625608E0],"categories":[],"categories_nodes":[],"categories_segments":[],"categories_sizes":[],"default_left":[0,0,1,0,0,1,1,0,0,1,1,1,0,1,0,1,0,0,0,1,0,1,0,0,0,0,0,0,0,0,0,0,0,0,0,0,0,0,0,0,0,0,0,0,0],"id":20,"left_children":[1,-1,3,5,7,9,11,-1,13,15,17,19,21,23,25,27,29,31,33,35,37,39,41,-1,-1,43,-1,-1,-1,-1,-1,-1,-1,-1,-1,-1,-1,-1,-1,-1,-1,-1,-1,-1,-1],"loss_changes":[1.1862643E2,0E0,1.2851515E2,1.1596676E2,2.6269104E1,1.149361E2,1.7025505E2,0E0,1.52569275E1,7.2145096E1,2.6340218E1,1.4925357E2,3.258763E1,1.6689503E-1,1.4651413E1,6.926611E1,7.337902E0,1.7189804E1,5.9772766E-1,1.030925E2,1.827168E2,1.4001242E1,3.5339996E1,0E0,0E0,5.2891083E0,0E0,0E0,0E0,0E0,0E0,0E0,0E0,0E0,0E0,0E0,0E0,0E0,0E0,0E0,0E0,0E0,0E0,0E0,0E0],"parents":[2147483647,0,0,2,2,3,3,4,4,5,5,6,6,8,8,9,9,10,10,11,11,12,12,13,13,14,14,15,15,16,16,17,17,18,18,19,19,20,20,21,21,22,22,25,25],"right_children":[2,-1,4,6,8,10,12,-1,14,16,18,20,22,24,26,28,30,32,34,36,38,40,42,-1,-1,44,-1,-1,-1,-1,-1,-1,-1,-1,-1,-1,-1,-1,-1,-1,-1,-1,-1,-1,-1],"split_conditions":[9.879753E-1,3.0237138E-1,3.0916844E-2,4.4595343E-1,7.200369E-2,4.0809255E-2,3.3440497E-2,2.3738645E-1,1.5884781E-1,2.7088443E-2,6.608085E-2,9.9177885E-1,1.3487938E-1,4.4515625E-2,-1.8575149E0,9.944829E-1,2.4087893E-2,2.7310017E-2,2.9626844E-2,5.016509E-2,4.1974473E-1,2.8159147E-2,-1.8575149E0,2.3267347E-2,1.9356973E-1,2.00001E0,-4.4423002E-1,1.2714298E-1,-2.766737E-1,1.637285E-1,-4.956029E-1,1.0260816E-1,-7.187435E-1,2.2508262E-1,-1.8357769E-2,1.2861168E-1,-7.360171E-1,1.3888843E-1,-1.177978E-1,1.1530609E-1,-4.077676E-1,-7.4610674E-1,-3.334161E-1,-2.37948E-1,-1.0625608E0],"split_indices":[11883,0,2107,4549,6856,1642,2481,0,3234,1401,185,11891,3038,6731,11886,11695,3832,3838,4549,1901,5926,4469,11886,0,0,11700,0,0,0,0,0,0,0,0,0,0,0,0,0,0,0,0,0,0,0],"split_type":[0,0,0,0,0,0,0,0,0,0,0,0,0,0,0,0,0,0,0,0,0,0,0,0,0,0,0,0,0,0,0,0,0,0,0,0,0,0,0,0,0,0,0,0,0],"sum_hessian":[3.5153735E3,1.1824929E2,3.3971243E3,3.3368994E3,6.0224705E1,1.0991976E3,2.237702E3,4.300717E0,5.592399E1,1.0724072E3,2.6790377E1,2.130904E3,1.06797775E2,2.7523685E0,5.317162E1,1.0524529E3,1.995435E1,2.2927776E1,3.862602E0,6.080545E2,1.5228496E3,1.9601736E1,8.7196045E1,1.0158037E0,1.7365646E0,6.887085E0,4.6284534E1,1.013644E3,3.880895E1,1.181791E0,1.8772558E1,2.3059888E0,2.0621786E1,2.8618095E0,1.0007925E0,5.96363E2,1.1691529E1,3.1352206E2,1.2093275E3,1.3923016E1,5.678721E0,2.9299479E1,5.7896564E1,1.5679625E0,5.3191223E0],"tree_param":{"num_deleted":"0","num_feature":"11898","num_nodes":"45","size_leaf_vector":"1"}},{"base_weights":[2.3216203E-2,-1.4588196E-2,8.807822E-1,2.6580524E-2,-1.0725665E0,9.6316844E-1,-1.6564314E0,5.3077742E-2,-1.6145067E0,7.653271E-1,-1.3919028E0,9.9860996E-1,-2.705573E-1,-2.604617E-1,-6.747633E-1,8.754246E-2,-1.0166879E0,-1.9742783E0,-6.999194E-1,-2.6977783E-1,3.1973577E-1,5.6337327E-1,-1.6536316E0,3.0153495E-1,2.3807159E-2,1.0326343E-1,-2.078159E0,-4.5193937E-1,-1.9433554E0,-3.5534604E0,-1.5005959E0,-1.1383748E0,2.1489745E-1,2.7405536E-1,-2.5243047E-1,2.399121E-1,-1.7659533E0,3.8305786E-2,-3.8080665E-1,-6.713151E-1,-2.9702416E-1,8.379176E-2,-3.0753362E-1,-7.8491133E-1,-4.4745585E-1,-2.0911698E-1,-1.1708828E0,-4.7744578E-1,1.483037E-1,1.3100012E-1,-4.2609757E-1,3.908649E-2,-5.4790145E-1],"categories":[],"categories_nodes":[],"categories_segments":[],"categories_sizes":[],"default_left":[1,1,0,1,0,0,0,1,0,1,0,1,0,0,0,1,1,0,1,0,0,0,0,0,0,1,1,0,0,0,1,0,0,0,0,0,0,0,0,0,0,0,0,0,0,0,0,0,0,0,0,0,0],"id":21,"left_children":[1,3,5,7,9,11,13,15,17,19,21,23,-1,-1,-1,25,27,29,31,-1,-1,33,35,-1,-1,37,39,41,43,45,47,49,-1,-1,-1,-1,51,-1,-1,-1,-1,-1,-1,-1,-1,-1,-1,-1,-1,-1,-1,-1,-1],"loss_changes":[1.0861241E2,1.398134E2,3.1163239E1,1.3445688E2,7.162938E1,9.998215E0,2.9762077E-1,1.1224426E2,1.4784836E1,1.0182522E1,5.353334E1,7.309418E-1,0E0,0E0,0E0,1.00583466E2,4.885109E1,2.0633575E1,1.0390702E1,0E0,0E0,7.104393E0,2.646289E1,0E0,0E0,9.830556E1,1.4811096E0,2.5578602E1,6.947464E0,4.545395E0,5.9423447E0,6.0206976E0,0E0,0E0,0E0,0E0,1.0227173E1,0E0,0E0,0E0,0E0,0E0,0E0,0E0,0E0,0E0,0E0,0E0,0E0,0E0,0E0,0E0,0E0],"parents":[2147483647,0,0,1,1,2,2,3,3,4,4,5,5,6,6,7,7,8,8,9,9,10,10,11,11,15,15,16,16,17,17,18,18,21,21,22,22,25,25,26,26,27,27,28,28,29,29,30,30,31,31,36,36],"right_children":[2,4,6,8,10,12,14,16,18,20,22,24,-1,-1,-1,26,28,30,32,-1,-1,34,36,-1,-1,38,40,42,44,46,48,50,-1,-1,-1,-1,52,-1,-1,-1,-1,-1,-1,-1,-1,-1,-1,-1,-1,-1,-1,-1,-1],"split_conditions":[7.77021E-2,3.59772E-2,2.00001E0,9.453688E-2,1.4611149E-1,-1.8575149E0,5.164463E-1,3.1992324E-2,2.00001E0,3.8359288E-2,1.5528402E-1,4.085543E-2,-2.705573E-1,-2.604617E-1,-6.747633E-1,4.936179E-2,9.900864E-1,-1.8575149E0,8.387134E-2,-2.6977783E-1,3.1973577E-1,1.19012095E-1,5.6780368E-2,3.0153495E-1,2.3807159E-2,1.1557651E-1,3.083265E-2,2.0183052E-1,-1.8575149E0,1.2846325E-1,9.5162645E-2,1.1626967E-1,2.1489745E-1,2.7405536E-1,-2.5243047E-1,2.399121E-1,5.0839346E-2,3.8305786E-2,-3.8080665E-1,-6.713151E-1,-2.9702416E-1,8.379176E-2,-3.0753362E-1,-7.8491133E-1,-4.4745585E-1,-2.0911698E-1,-1.1708828E0,-4.7744578E-1,1.483037E-1,1.3100012E-1,-4.2609757E-1,3.908649E-2,-5.4790145E-1],"split_indices":[2637,722,11702,5382,3816,11886,6016,2219,11891,2311,3352,838,0,0,0,5575,11712,11886,5995,0,0,1463,4346,0,0,2760,4941,4033,11886,4483,512,7324,0,0,0,0,708,0,0,0,0,0,0,0,0,0,0,0,0,0,0,0,0],"split_type":[0,0,0,0,0,0,0,0,0,0,0,0,0,0,0,0,0,0,0,0,0,0,0,0,0,0,0,0,0,0,0,0,0,0,0,0,0,0,0,0,0,0,0,0,0,0,0,0,0,0,0,0,0],"sum_hessian":[3.3487944E3,3.208343E3,1.4045157E2,3.0891123E3,1.1923061E2,1.3663525E2,3.8163183E0,3.04098E3,4.813242E1,1.7443054E1,1.0178756E2,1.3454306E2,2.092195E0,2.6960218E0,1.1202966E0,2.9469558E3,9.402413E1,3.3712326E1,1.4420091E1,2.3623476E0,1.5080708E1,1.1880482E1,8.990708E1,1.335047E2,1.0383554E0,2.9266633E3,2.029253E1,5.9344757E1,3.467937E1,6.2786207E0,2.7433706E1,1.1160966E1,3.2591243E0,9.790057E0,2.0904243E0,3.6681118E0,8.623897E1,2.8763916E3,5.0271626E1,1.6775902E1,3.5166276E0,2.6301891E1,3.3042866E1,1.2005901E1,2.2673471E1,1.0108925E0,5.267728E0,2.6431713E1,1.0019933E0,1.6112738E0,9.549692E0,2.6257513E0,8.361322E1],"tree_param":{"num_deleted":"0","num_feature":"11898","num_nodes":"53","size_leaf_vector":"1"}},{"base_weights":[1.4724053E-2,9.7123724E-1,-1.9690994E-2,3.08285E-1,-4.1007027E-1,7.623071E-3,-1.3379488E0,3.6794472E-2,-1.2213676E0,2.704211E-1,-1.6486092E0,6.977581E-1,-1.4085524E-2,2.7042457E-1,-1.5832846E0,4.560885E-2,-1.7137827E0,8.172813E-1,-9.920897E-1,4.310523E-2,-8.2982206E-1,2.1844776E-1,-1.7016636E0,-2.5145082E0,-4.4536474E-1,2.5596184E-1,-3.9933825E-1,2.0271786E-1,-4.563932E-1,1.7183259E-1,-8.375422E-3,2.4758013E-1,-3.6095333E-1,-8.9124244E-1,-4.8300028E-1,-3.6171946E-1,-8.716578E-1],"categories":[],"categories_nodes":[],"categories_segments":[],"categories_sizes":[],"default_left":[0,1,1,0,0,1,0,0,0,0,0,1,1,0,0,0,0,1,0,0,0,0,0,0,0,0,0,0,0,0,0,0,0,0,0,0,0],"id":22,"left_children":[1,3,5,-1,-1,7,9,11,13,-1,15,17,19,-1,21,-1,23,25,27,29,31,-1,33,35,-1,-1,-1,-1,-1,-1,-1,-1,-1,-1,-1,-1,-1],"loss_changes":[1.057861E2,1.6117088E1,1.1171798E2,0E0,0E0,1.0904786E2,4.5301147E1,9.992024E1,5.5608276E1,0E0,6.79274E0,4.3704086E1,1.2877446E2,0E0,1.7824661E1,0E0,6.1421814E0,1.6486084E1,1.3808911E1,9.7060646E1,1.1274201E2,0E0,1.959732E0,1.8868256E0,0E0,0E0,0E0,0E0,0E0,0E0,0E0,0E0,0E0,0E0,0E0,0E0,0E0],"parents":[2147483647,0,0,1,1,2,2,5,5,6,6,7,7,8,8,10,10,11,11,12,12,14,14,16,16,17,17,18,18,19,19,20,20,22,22,23,23],"right_children":[2,4,6,-1,-1,8,10,12,14,-1,16,18,20,-1,22,-1,24,26,28,30,32,-1,34,36,-1,-1,-1,-1,-1,-1,-1,-1,-1,-1,-1,-1,-1],"split_conditions":[2.00001E0,9.9169946E-1,8.589844E-2,3.08285E-1,-4.1007027E-1,5.017677E-2,9.0898454E-2,2.3697084E-1,1.2810493E-1,2.704211E-1,9.3604475E-2,7.27532E-2,7.06047E-2,2.7042457E-1,7.26511E-2,4.560885E-2,-1.8575149E0,3.1371552E-2,4.100534E-2,8.869383E-2,8.625486E-2,2.1844776E-1,8.8093236E-2,4.082445E-1,-4.4536474E-1,2.5596184E-1,-3.9933825E-1,2.0271786E-1,-4.563932E-1,1.7183259E-1,-8.375422E-3,2.4758013E-1,-3.6095333E-1,-8.9124244E-1,-4.8300028E-1,-3.6171946E-1,-8.716578E-1],"split_indices":[9334,11638,7401,0,0,5357,6759,4654,4286,0,6257,2478,676,0,418,0,11886,7746,4262,6191,5755,0,4742,2974,0,0,0,0,0,0,0,0,0,0,0,0,0],"split_type":[0,0,0,0,0,0,0,0,0,0,0,0,0,0,0,0,0,0,0,0,0,0,0,0,0,0,0,0,0,0,0,0,0,0,0,0,0],"sum_hessian":[3.2120002E3,1.1060772E2,3.1013923E3,1.0855074E2,2.0569808E0,3.0394106E3,6.1981827E1,2.9698872E3,6.952338E1,7.3193965E0,5.466243E1,2.1136803E2,2.7585193E3,9.909525E0,5.9613853E1,1.8628273E0,5.2799603E1,1.9788776E2,1.348028E1,2.578677E3,1.7984221E2,2.653383E0,5.696047E1,9.532583E0,4.3267017E1,1.9522614E2,2.6616163E0,3.180439E0,1.0299841E1,3.0405597E2,2.274621E3,3.2878975E1,1.4696323E2,1.7210475E0,5.523942E1,3.132236E0,6.4003468E0],"tree_param":{"num_deleted":"0","num_feature":"11898","num_nodes":"37","size_leaf_vector":"1"}},{"base_weights":[1.2476353E-2,3.012917E-1,-2.0642405E-2,3.3770022E-1,-1.1439516E-1,8.063093E-1,1.03925034E-1,5.866185E-1,-1.853133E-1,-5.1568943E-1,8.6219525E-1,8.686339E-1,-1.3154924E-1,8.220187E-1,-4.8907004E-2,7.5293523E-1,-2.4873367E-1,9.0280455E-1,-1.5814385E0,9.332428E-1,-4.6273854E-1,5.2357036E-1,-5.01013E-1,8.457184E-1,-3.9951998E-1,6.727116E-1,-1.3619714E0,8.763093E-1,-6.049739E-1,3.4153408E-1,-3.6748496E-1,-3.9552826E-1,2.8291884E-1,-1.6649319E-1,-5.629581E-1,2.892251E-1,-2.1244906E-1,1.8711653E-1,-3.280647E-1,2.1569999E-1,-2.1838422E-1,2.6155972E-1,-2.8613266E-1,2.9425216E-1,-3.8825035E-1,1.02027334E-1,-5.19401E-1,2.812657E-1,-2.4783535E-1,2.3718022E-1,-5.173874E-1,1.2330728E-1,-4.2791983E-1,-1.4007826E-1,1.3385005E-1],"categories":[],"categories_nodes":[],"categories_segments":[],"categories_sizes":[],"default_left":[0,0,0,0,0,0,0,0,0,0,1,1,0,1,0,0,0,0,0,0,0,1,0,1,0,0,0,1,0,1,1,0,0,0,0,0,0,0,0,0,0,0,0,0,0,0,0,0,0,0,0,0,0,0,0],"id":23,"left_children":[1,-1,3,5,7,9,11,13,15,-1,17,19,21,23,25,27,29,31,33,35,-1,37,39,41,-1,43,45,47,49,51,53,-1,-1,-1,-1,-1,-1,-1,-1,-1,-1,-1,-1,-1,-1,-1,-1,-1,-1,-1,-1,-1,-1,-1,-1],"loss_changes":[1.01515E2,0E0,1.00521126E2,6.789103E1,1.1800414E2,3.0606873E1,7.48653E1,3.266964E1,1.2837921E2,0E0,2.1529633E1,1.6684647E1,7.72947E1,9.252945E0,5.7669037E1,2.3423157E1,1.4162561E2,1.9118576E1,7.1647644E-2,5.5391235E0,0E0,1.934807E1,5.700515E1,8.270035E0,0E0,2.510078E1,1.4151436E1,1.3877792E1,2.0071894E1,4.218734E1,1.3622615E2,0E0,0E0,0E0,0E0,0E0,0E0,0E0,0E0,0E0,0E0,0E0,0E0,0E0,0E0,0E0,0E0,0E0,0E0,0E0,0E0,0E0,0E0,0E0,0E0],"parents":[2147483647,0,0,2,2,3,3,4,4,5,5,6,6,7,7,8,8,10,10,11,11,12,12,13,13,14,14,15,15,16,16,17,17,18,18,19,19,21,21,22,22,23,23,25,25,26,26,27,27,28,28,29,29,30,30],"right_children":[2,-1,4,6,8,10,12,14,16,-1,18,20,22,24,26,28,30,32,34,36,-1,38,40,42,-1,44,46,48,50,52,54,-1,-1,-1,-1,-1,-1,-1,-1,-1,-1,-1,-1,-1,-1,-1,-1,-1,-1,-1,-1,-1,-1,-1,-1],"split_conditions":[9.946623E-1,3.012917E-1,3.907552E-1,2.00001E0,2.00001E0,1.7276984E-1,1.2391357E-1,-1.8575149E0,3.6769494E-1,-5.1568943E-1,6.1534815E-2,4.231077E-2,1.626067E-1,4.766546E-2,1.5230575E-1,9.5605683E-1,1.3775985E-1,2.2020325E-1,9.669291E-2,9.879871E-1,-4.6273854E-1,3.7708003E-2,6.2939346E-2,8.647313E-2,-3.9951998E-1,2.00001E0,7.764308E-2,9.94337E-1,2.6000103E-1,3.248768E-2,9.217244E-2,-3.9552826E-1,2.8291884E-1,-1.6649319E-1,-5.629581E-1,2.892251E-1,-2.1244906E-1,1.8711653E-1,-3.280647E-1,2.1569999E-1,-2.1838422E-1,2.6155972E-1,-2.8613266E-1,2.9425216E-1,-3.8825035E-1,1.02027334E-1,-5.19401E-1,2.812657E-1,-2.4783535E-1,2.3718022E-1,-5.173874E-1,1.2330728E-1,-4.2791983E-1,-1.4007826E-1,1.3385005E-1],"split_indices":[7821,0,2132,11707,11848,4864,1,11886,1472,0,1528,4365,4476,2072,5995,11887,3081,349,4469,11887,0,570,1671,2734,0,11697,1186,11690,1702,915,4153,0,0,0,0,0,0,0,0,0,0,0,0,0,0,0,0,0,0,0,0,0,0,0,0],"split_type":[0,0,0,0,0,0,0,0,0,0,0,0,0,0,0,0,0,0,0,0,0,0,0,0,0,0,0,0,0,0,0,0,0,0,0,0,0,0,0,0,0,0,0,0,0,0,0,0,0,0,0,0,0,0,0],"sum_hessian":[3.0888013E3,9.8859726E1,2.9899417E3,6.194961E2,2.3704456E3,2.0537231E2,4.1412375E2,2.171071E2,2.1533384E3,3.8023014E0,2.0157E2,9.6864586E1,3.172592E2,1.5821167E2,5.889544E1,1.3564964E2,2.0176887E3,1.9889523E2,2.6747763E0,9.493364E1,1.9309478E0,1.1425293E2,2.0300624E2,1.570904E2,1.1212801E0,3.832236E1,2.0573078E1,1.2467669E2,1.0972948E1,3.3762192E2,1.6800669E3,2.9754717E0,1.9591975E2,1.240484E0,1.4342924E0,9.358784E1,1.3457997E0,1.0816816E2,6.0847692E0,3.1498749E1,1.7150749E2,1.553486E2,1.7417811E0,3.3565372E1,4.756988E0,3.6826081E0,1.689047E1,1.20781006E2,3.8956826E0,5.015423E0,5.9575253E0,3.2559174E2,1.2030157E1,1.4974752E3,1.8259167E2],"tree_param":{"num_deleted":"0","num_feature":"11898","num_nodes":"55","size_leaf_vector":"1"}},{"base_weights":[1.8605912E-2,7.487248E-1,-2.6577465E-2,8.4056914E-1,-1.0260813E0,4.3289173E-1,-1.0257946E-1,8.8256145E-1,-4.183083E-1,2.0984186E-1,-5.2652186E-1,6.911206E-1,-9.687185E-2,-1.4787315E-1,8.731118E-1,9.0768874E-1,-4.1591007E-1,7.578787E-1,-5.935094E-1,5.6786925E-1,-7.6683116E-1,-1.0788753E-1,-1.739189E0,9.6501344E-1,-4.406731E-1,-2.3183993E-1,9.3345994E-1,7.8909296E-1,-3.5924494E-1,6.669075E-1,-1.3489816E0,6.8198895E-1,-9.528481E-1,8.10941E-1,-1.1039263E0,5.9134185E-1,-1.713526E-1,-2.680068E0,-4.2319283E-1,9.9210984E-1,-2.0740634E-1,2.8532335E-1,-1.8971029E-1,2.6090062E-1,3.2819738E-3,3.326034E-2,2.3570375E-1,-7.831473E-2,-4.3846485E-1,2.2592303E-1,-2.99166E-1,7.4558854E-2,-4.3417913E-1,2.8104362E-1,